{"learner":{"attributes":{"scikit_learn":"{\"_estimator_type\": \"regressor\"}"},"feature_names":["upi_velocity","gst_timeliness","pat_margin","asset_liability_ratio","sector_encoded"],"feature_types":["int","float","float","float","int"],"gradient_booster":{"model":{"cats":{"enc":[],"feature_segments":[],"sorted_idx":[]},"gbtree_model_param":{"num_parallel_tree":"1","num_trees":"100"},"iteration_indptr":[0,1,2,3,4,5,6,7,8,9,10,11,12,13,14,15,16,17,18,19,20,21,22,23,24,25,26,27,28,29,30,31,32,33,34,35,36,37,38,39,40,41,42,43,44,45,46,47,48,49,50,51,52,53,54,55,56,57,58,59,60,61,62,63,64,65,66,67,68,69,70,71,72,73,74,75,76,77,78,79,80,81,82,83,84,85,86,87,88,89,90,91,92,93,94,95,96,97,98,99,100],"tree_info":[0,0,0,0,0,0,0,0,0,0,0,0,0,0,0,0,0,0,0,0,0,0,0,0,0,0,0,0,0,0,0,0,0,0,0,0,0,0,0,0,0,0,0,0,0,0,0,0,0,0,0,0,0,0,0,0,0,0,0,0,0,0,0,0,0,0,0,0,0,0,0,0,0,0,0,0,0,0,0,0,0,0,0,0,0,0,0,0,0,0,0,0,0,0,0,0,0,0,0,0],"trees":[{"base_weights":[-2.7743254E-5,-4.3597363E1,3.114093E1,-1.4785511E1,-3.127002E0,8.58165E0,1.3774494E1,-9.870026E-1,4.090662E0],"categories":[],"categories_nodes":[],"categories_segments":[],"categories_sizes":[],"default_left":[0,0,0,0,0,0,0,0,0],"id":0,"left_children":[1,3,5,-1,-1,7,-1,-1,-1],"loss_changes":[1.6291953E4,4.297002E2,1.9390181E3,0E0,0E0,2.848532E2,0E0,0E0,0E0],"parents":[2147483647,0,0,1,1,2,2,5,5],"right_children":[2,4,6,-1,-1,8,-1,-1,-1],"split_conditions":[5.92E0,2E1,1.273E1,-1.4785511E1,-3.127002E0,1.5E1,1.3774494E1,-9.870026E-1,4.090662E0],"split_indices":[2,0,2,0,0,0,0,0,0],"split_type":[0,0,0,0,0,0,0,0,0],"sum_hessian":[1E1,4E0,6E0,3E0,1E0,3E0,3E0,1E0,2E0],"tree_param":{"num_deleted":"0","num_feature":"5","num_nodes":"9","size_leaf_vector":"1"}},{"base_weights":[-9.403853E-2,-3.4100647E1,2.420983E1,-1.1458768E1,-2.65795E0,6.783081E0,1.0675237E1,-8.3895266E-1,3.2725344E0],"categories":[],"categories_nodes":[],"categories_segments":[],"categories_sizes":[],"default_left":[0,0,0,0,0,0,0,0,0],"id":1,"left_children":[1,3,5,-1,-1,7,-1,-1,-1],"loss_changes":[9.916984E3,1.7842725E2,1.1461484E3,0E0,0E0,1.8858284E2,0E0,0E0,0E0],"parents":[2147483647,0,0,1,1,2,2,5,5],"right_children":[2,4,6,-1,-1,8,-1,-1,-1],"split_conditions":[5.92E0,2E1,1.273E1,-1.1458768E1,-2.65795E0,1.5E1,1.0675237E1,-8.3895266E-1,3.2725344E0],"split_indices":[2,0,2,0,0,0,0,0,0],"split_type":[0,0,0,0,0,0,0,0,0],"sum_hessian":[1E1,4E0,6E0,3E0,1E0,3E0,3E0,1E0,2E0],"tree_param":{"num_deleted":"0","num_feature":"5","num_nodes":"9","size_leaf_vector":"1"}},{"base_weights":[-1.574596E-1,-2.6693811E1,1.881957E1,-8.880551E0,-2.2592561E0,5.356552E0,8.27331E0,-7.131134E-1,2.6180298E0],"categories":[],"categories_nodes":[],"categories_segments":[],"categories_sizes":[],"default_left":[0,0,0,0,0,0,0,0,0],"id":2,"left_children":[1,3,5,-1,-1,7,-1,-1,-1],"loss_changes":[6.0417583E3,5.5704834E1,6.776543E2,0E0,0E0,1.24999435E2,0E0,0E0,0E0],"parents":[2147483647,0,0,1,1,2,2,5,5],"right_children":[2,4,6,-1,-1,8,-1,-1,-1],"split_conditions":[5.92E0,2E1,1.273E1,-8.880551E0,-2.2592561E0,1.5E1,8.27331E0,-7.131134E-1,2.6180298E0],"split_indices":[2,0,2,0,0,0,0,0,0],"split_type":[0,0,0,0,0,0,0,0,0],"sum_hessian":[1E1,4E0,6E0,3E0,1E0,3E0,3E0,1E0,2E0],"tree_param":{"num_deleted":"0","num_feature":"5","num_nodes":"9","size_leaf_vector":"1"}},{"base_weights":[-1.9763738E-1,-2.0913624E1,1.4627729E1,-2.6457644E0,-7.811048E0,4.225815E0,6.4118137E0,-6.0614324E-1,2.0944216E0],"categories":[],"categories_nodes":[],"categories_segments":[],"categories_sizes":[],"default_left":[0,0,0,0,0,0,0,0,0],"id":3,"left_children":[1,3,5,-1,-1,7,-1,-1,-1],"loss_changes":[3.6842617E3,8.0186035E1,4.0080798E2,0E0,0E0,8.295464E1,0E0,0E0,0E0],"parents":[2147483647,0,0,1,1,2,2,5,5],"right_children":[2,4,6,-1,-1,8,-1,-1,-1],"split_conditions":[5.92E0,2.15E0,1.273E1,-2.6457644E0,-7.811048E0,1.5E1,6.4118137E0,-6.0614324E-1,2.0944216E0],"split_indices":[2,3,2,0,0,0,0,0,0],"split_type":[0,0,0,0,0,0,0,0,0],"sum_hessian":[1E1,4E0,6E0,2E0,2E0,3E0,3E0,1E0,2E0],"tree_param":{"num_deleted":"0","num_feature":"5","num_nodes":"9","size_leaf_vector":"1"}},{"base_weights":[-3.707775E-1,-1.6730907E1,1.1367998E1,-2.1166139E0,-6.248841E0,-5.152222E-1,1.3835134E1,1.6755371E0,4.9691577E0],"categories":[],"categories_nodes":[],"categories_segments":[],"categories_sizes":[],"default_left":[0,0,0,0,0,0,0,0,0],"id":4,"left_children":[1,3,5,-1,-1,-1,7,-1,-1],"loss_changes":[2.3027239E3,5.1318848E1,2.4974481E2,0E0,0E0,0E0,4.256079E1,0E0,0E0],"parents":[2147483647,0,0,1,1,2,2,6,6],"right_children":[2,4,6,-1,-1,-1,8,-1,-1],"split_conditions":[5.92E0,2.15E0,1.5E1,-2.1166139E0,-6.248841E0,-5.152222E-1,6.51E0,1.6755371E0,4.9691577E0],"split_indices":[2,3,0,0,0,0,2,0,0],"split_type":[0,0,0,0,0,0,0,0,0],"sum_hessian":[1E1,4E0,6E0,2E0,2E0,1E0,5E0,2E0,3E0],"tree_param":{"num_deleted":"0","num_feature":"5","num_nodes":"9","size_leaf_vector":"1"}},{"base_weights":[-4.628185E-1,-1.3384717E1,8.833226E0,-1.6932862E0,-4.9990726E0,-4.3794253E-1,1.0792033E1,1.3404298E0,3.8510926E0],"categories":[],"categories_nodes":[],"categories_segments":[],"categories_sizes":[],"default_left":[0,0,0,0,0,0,0,0,0],"id":5,"left_children":[1,3,5,-1,-1,-1,7,-1,-1],"loss_changes":[1.4395781E3,3.2844788E1,1.568888E2,0E0,0E0,0E0,2.0235596E1,0E0,0E0],"parents":[2147483647,0,0,1,1,2,2,6,6],"right_children":[2,4,6,-1,-1,-1,8,-1,-1],"split_conditions":[5.92E0,2.15E0,1.5E1,-1.6932862E0,-4.9990726E0,-4.3794253E-1,6.51E0,1.3404298E0,3.8510926E0],"split_indices":[2,3,0,0,0,0,2,0,0],"split_type":[0,0,0,0,0,0,0,0,0],"sum_hessian":[1E1,4E0,6E0,2E0,2E0,1E0,5E0,2E0,3E0],"tree_param":{"num_deleted":"0","num_feature":"5","num_nodes":"9","size_leaf_vector":"1"}},{"base_weights":[-5.0022197E-1,-1.0707764E1,6.8623395E0,-1.3546264E0,-3.9992557E0,-3.7225342E-1,8.419678E0,2.7793837E0,6.292511E-1],"categories":[],"categories_nodes":[],"categories_segments":[],"categories_sizes":[],"default_left":[0,0,0,0,0,0,0,0,0],"id":6,"left_children":[1,3,5,-1,-1,-1,7,-1,-1],"loss_changes":[9.001705E2,2.1020874E1,9.8783295E1,0E0,0E0,0E0,1.2618347E1,0E0,0E0],"parents":[2147483647,0,0,1,1,2,2,6,6],"right_children":[2,4,6,-1,-1,-1,8,-1,-1],"split_conditions":[5.92E0,2.15E0,1.5E1,-1.3546264E0,-3.9992557E0,-3.7225342E-1,3.3E1,2.7793837E0,6.292511E-1],"split_indices":[2,3,0,0,0,0,0,0,0],"split_type":[0,0,0,0,0,0,0,0,0],"sum_hessian":[1E1,4E0,6E0,2E0,2E0,1E0,5E0,4E0,1E0],"tree_param":{"num_deleted":"0","num_feature":"5","num_nodes":"9","size_leaf_vector":"1"}},{"base_weights":[-5.608299E-1,-8.566211E0,5.237418E0,-3.8595521E0,-1.2825532E0,1.3013306E0,2.3592453E0,-3.1641543E-1,7.3147583E-1],"categories":[],"categories_nodes":[],"categories_segments":[],"categories_sizes":[],"default_left":[0,0,0,0,0,0,0,0,0],"id":7,"left_children":[1,3,5,-1,-1,7,-1,-1,-1],"loss_changes":[5.5545386E2,3.723407E1,6.213951E1,0E0,0E0,1.3286243E1,0E0,0E0,0E0],"parents":[2147483647,0,0,1,1,2,2,5,5],"right_children":[2,4,6,-1,-1,8,-1,-1,-1],"split_conditions":[5.92E0,9.166667E0,1.273E1,-3.8595521E0,-1.2825532E0,1.5E1,2.3592453E0,-3.1641543E-1,7.3147583E-1],"split_indices":[2,1,2,0,0,0,0,0,0],"split_type":[0,0,0,0,0,0,0,0,0],"sum_hessian":[1E1,4E0,6E0,1E0,3E0,3E0,3E0,1E0,2E0],"tree_param":{"num_deleted":"0","num_feature":"5","num_nodes":"9","size_leaf_vector":"1"}},{"base_weights":[-6.078436E-1,-7.0247803E0,4.0625176E0,-3.2806184E0,-9.939835E-1,-2.689545E-1,5.038442E0,5.851807E-1,1.8284135E0],"categories":[],"categories_nodes":[],"categories_segments":[],"categories_sizes":[],"default_left":[0,0,0,0,0,0,0,0,0],"id":8,"left_children":[1,3,5,-1,-1,-1,7,-1,-1],"loss_changes":[3.5820184E2,3.6339233E1,3.839453E1,0E0,0E0,0E0,7.681183E0,0E0,0E0],"parents":[2147483647,0,0,1,1,2,2,6,6],"right_children":[2,4,6,-1,-1,-1,8,-1,-1],"split_conditions":[5.92E0,9.166667E0,1.5E1,-3.2806184E0,-9.939835E-1,-2.689545E-1,6.51E0,5.851807E-1,1.8284135E0],"split_indices":[2,1,0,0,0,0,2,0,0],"split_type":[0,0,0,0,0,0,0,0,0],"sum_hessian":[1E1,4E0,6E0,1E0,3E0,1E0,5E0,2E0,3E0],"tree_param":{"num_deleted":"0","num_feature":"5","num_nodes":"9","size_leaf_vector":"1"}},{"base_weights":[-6.191351E-1,-5.772278E0,3.150129E0,-2.7885225E0,-7.7034307E-1,-2.286072E-1,3.9291584E0,4.6813965E-1,1.4170166E0],"categories":[],"categories_nodes":[],"categories_segments":[],"categories_sizes":[],"default_left":[0,0,0,0,0,0,0,0,0],"id":9,"left_children":[1,3,5,-1,-1,-1,7,-1,-1],"loss_changes":[2.3184253E2,3.257544E1,2.4327896E1,0E0,0E0,0E0,3.917038E0,0E0,0E0],"parents":[2147483647,0,0,1,1,2,2,6,6],"right_children":[2,4,6,-1,-1,-1,8,-1,-1],"split_conditions":[5.92E0,9.166667E0,1.5E1,-2.7885225E0,-7.7034307E-1,-2.286072E-1,6.51E0,4.6813965E-1,1.4170166E0],"split_indices":[2,1,0,0,0,0,2,0,0],"split_type":[0,0,0,0,0,0,0,0,0],"sum_hessian":[1E1,4E0,6E0,1E0,3E0,1E0,5E0,2E0,3E0],"tree_param":{"num_deleted":"0","num_feature":"5","num_nodes":"9","size_leaf_vector":"1"}},{"base_weights":[-6.063288E-1,-4.7523804E0,2.441755E0,-2.3702455E0,-5.9702E-1,-1.9431153E-1,3.064616E0,3.7451175E-1,1.0981934E0],"categories":[],"categories_nodes":[],"categories_segments":[],"categories_sizes":[],"default_left":[0,0,0,0,0,0,0,0,0],"id":10,"left_children":[1,3,5,-1,-1,-1,7,-1,-1],"loss_changes":[1.5061679E2,2.7761703E1,1.5455093E1,0E0,0E0,0E0,1.9253502E0,0E0,0E0],"parents":[2147483647,0,0,1,1,2,2,6,6],"right_children":[2,4,6,-1,-1,-1,8,-1,-1],"split_conditions":[5.92E0,9.166667E0,1.5E1,-2.3702455E0,-5.9702E-1,-1.9431153E-1,6.51E0,3.7451175E-1,1.0981934E0],"split_indices":[2,1,0,0,0,0,2,0,0],"split_type":[0,0,0,0,0,0,0,0,0],"sum_hessian":[1E1,4E0,6E0,1E0,3E0,1E0,5E0,2E0,3E0],"tree_param":{"num_deleted":"0","num_feature":"5","num_nodes":"9","size_leaf_vector":"1"}},{"base_weights":[-5.779585E-1,-3.920105E0,1.8918544E0,-2.0147095E0,-4.6268466E-1,-1.6516113E-1,2.3906758E0,2.996094E-1,8.5109717E-1],"categories":[],"categories_nodes":[],"categories_segments":[],"categories_sizes":[],"default_left":[0,0,0,0,0,0,0,0,0],"id":11,"left_children":[1,3,5,-1,-1,-1,7,-1,-1],"loss_changes":[9.821551E1,2.2879623E1,9.844379E0,0E0,0E0,0E0,8.942604E-1,0E0,0E0],"parents":[2147483647,0,0,1,1,2,2,6,6],"right_children":[2,4,6,-1,-1,-1,8,-1,-1],"split_conditions":[5.92E0,9.166667E0,1.5E1,-2.0147095E0,-4.6268466E-1,-1.6516113E-1,6.51E0,2.996094E-1,8.5109717E-1],"split_indices":[2,1,0,0,0,0,2,0,0],"split_type":[0,0,0,0,0,0,0,0,0],"sum_hessian":[1E1,4E0,6E0,1E0,3E0,1E0,5E0,2E0,3E0],"tree_param":{"num_deleted":"0","num_feature":"5","num_nodes":"9","size_leaf_vector":"1"}},{"base_weights":[-5.401833E-1,-3.8280334E0,1.1712646E0,-3.895447E-1,-1.7125031E0,1.15075685E-1,6.5960544E-1,-1.8214723E-1,2.3968507E-1],"categories":[],"categories_nodes":[],"categories_segments":[],"categories_sizes":[],"default_left":[0,0,0,0,0,0,0,0,0],"id":12,"left_children":[1,3,5,-1,-1,7,-1,-1,-1],"loss_changes":[6.638047E1,1.1613178E1,8.428182E0,0E0,0E0,2.9546723E0,0E0,0E0,0E0],"parents":[2147483647,0,0,1,1,2,2,5,5],"right_children":[2,4,6,-1,-1,8,-1,-1,-1],"split_conditions":[5.23E0,1.8E1,1.273E1,-3.895447E-1,-1.7125031E0,2.1E1,6.5960544E-1,-1.8214723E-1,2.3968507E-1],"split_indices":[2,0,2,0,0,0,0,0,0],"split_type":[0,0,0,0,0,0,0,0,0],"sum_hessian":[1E1,3E0,7E0,2E0,1E0,4E0,3E0,2E0,2E0],"tree_param":{"num_deleted":"0","num_feature":"5","num_nodes":"9","size_leaf_vector":"1"}},{"base_weights":[-5.0403386E-1,-1.4556245E0,4.15979E-1,-2.8648683E-1,1.1399449E0,-1.13067634E-1,1.4555664E0,1.9174805E-1,5.111939E-1],"categories":[],"categories_nodes":[],"categories_segments":[],"categories_sizes":[],"default_left":[0,0,0,0,0,0,0,0,0],"id":13,"left_children":[1,-1,3,-1,5,-1,7,-1,-1],"loss_changes":[4.6021217E1,0E0,1.1013699E1,0E0,3.8998156E0,0E0,1.2772083E-1,0E0,0E0],"parents":[2147483647,0,0,2,2,4,4,6,6],"right_children":[2,-1,4,-1,6,-1,8,-1,-1],"split_conditions":[9.166667E0,-1.4556245E0,5.92E0,-2.8648683E-1,1.5E1,-1.13067634E-1,6.51E0,1.9174805E-1,5.111939E-1],"split_indices":[1,0,2,0,0,0,2,0,0],"split_type":[0,0,0,0,0,0,0,0,0],"sum_hessian":[1E1,1E0,9E0,3E0,6E0,1E0,5E0,2E0,3E0],"tree_param":{"num_deleted":"0","num_feature":"5","num_nodes":"9","size_leaf_vector":"1"}},{"base_weights":[-4.575639E-1,-1.2372804E0,3.215332E-1,-7.400818E-1,8.82237E-1,-2.543396E-1,-6.2539674E-2,-9.610291E-2,1.1360575E0,3.6846316E-1,1.0129395E-1],"categories":[],"categories_nodes":[],"categories_segments":[],"categories_sizes":[],"default_left":[0,0,0,0,0,0,0,0,0,0,0],"id":14,"left_children":[1,-1,3,5,7,-1,-1,-1,9,-1,-1],"loss_changes":[3.274999E1,0E0,6.6054435E0,5.231929E-2,2.5006046E0,0E0,0E0,0E0,2.675438E-2,0E0,0E0],"parents":[2147483647,0,0,2,2,3,3,4,4,8,8],"right_children":[2,-1,4,6,8,-1,-1,-1,10,-1,-1],"split_conditions":[9.166667E0,-1.2372804E0,5.92E0,1.8E1,1.5E1,-2.543396E-1,-6.2539674E-2,-9.610291E-2,3.3E1,3.6846316E-1,1.0129395E-1],"split_indices":[1,0,2,0,0,0,0,0,0,0,0],"split_type":[0,0,0,0,0,0,0,0,0,0,0],"sum_hessian":[1E1,1E0,9E0,3E0,6E0,2E0,1E0,1E0,5E0,4E0,1E0],"tree_param":{"num_deleted":"0","num_feature":"5","num_nodes":"11","size_leaf_vector":"1"}},{"base_weights":[-4.276123E-1,-1.0516846E0,2.3074952E-1,-2.670724E-1,3.1327516E-1,-5.8673096E-1,1.06414795E-1,-1.9344635E-1,-5.315552E-2],"categories":[],"categories_nodes":[],"categories_segments":[],"categories_sizes":[],"default_left":[0,0,0,0,0,0,0,0,0],"id":15,"left_children":[1,-1,3,5,-1,7,-1,-1,-1],"loss_changes":[2.3099754E1,0E0,4.3286767E0,1.5994428E0,0E0,4.700303E-3,0E0,0E0,0E0],"parents":[2147483647,0,0,2,2,3,3,5,5],"right_children":[2,-1,4,6,-1,8,-1,-1,-1],"split_conditions":[9.166667E0,-1.0516846E0,1.273E1,2.1E1,3.1327516E-1,1.8E1,1.06414795E-1,-1.9344635E-1,-5.315552E-2],"split_indices":[1,0,2,0,0,0,0,0,0],"split_type":[0,0,0,0,0,0,0,0,0],"sum_hessian":[1E1,1E0,9E0,6E0,3E0,4E0,2E0,3E0,1E0],"tree_param":{"num_deleted":"0","num_feature":"5","num_nodes":"9","size_leaf_vector":"1"}},{"base_weights":[-3.7921143E-1,-8.939301E-1,1.788208E-1,-4.8727417E-1,5.339007E-1,-1.6478883E-1,-4.5181274E-2,-5.267029E-2,6.814067E-1,8.513184E-2,2.4278413E-1],"categories":[],"categories_nodes":[],"categories_segments":[],"categories_sizes":[],"default_left":[0,0,0,0,0,0,0,0,0,0,0],"id":16,"left_children":[1,-1,3,5,7,-1,-1,-1,9,-1,-1],"loss_changes":[1.6495975E1,0E0,2.6253252E0,7.972717E-4,8.521887E-1,0E0,0E0,0E0,7.542968E-2,0E0,0E0],"parents":[2147483647,0,0,2,2,3,3,4,4,8,8],"right_children":[2,-1,4,6,8,-1,-1,-1,10,-1,-1],"split_conditions":[9.166667E0,-8.939301E-1,5.92E0,1.8E1,1.5E1,-1.6478883E-1,-4.5181274E-2,-5.267029E-2,6.51E0,8.513184E-2,2.4278413E-1],"split_indices":[1,0,2,0,0,0,0,0,2,0,0],"split_type":[0,0,0,0,0,0,0,0,0,0,0],"sum_hessian":[1E1,1E0,9E0,3E0,6E0,2E0,1E0,1E0,5E0,2E0,3E0],"tree_param":{"num_deleted":"0","num_feature":"5","num_nodes":"11","size_leaf_vector":"1"}},{"base_weights":[-3.4078702E-1,-7.59842E-1,1.3169555E-1,-1.18075565E-1,4.1304234E-1,-4.4769287E-2,5.316264E-1,6.810303E-2,1.8815461E-1],"categories":[],"categories_nodes":[],"categories_segments":[],"categories_sizes":[],"default_left":[0,0,0,0,0,0,0,0,0],"id":17,"left_children":[1,-1,3,-1,5,-1,7,-1,-1],"loss_changes":[1.172616E1,0E0,1.6404278E0,0E0,5.4607165E-1,0E0,3.2270193E-2,0E0,0E0],"parents":[2147483647,0,0,2,2,4,4,6,6],"right_children":[2,-1,4,-1,6,-1,8,-1,-1],"split_conditions":[9.166667E0,-7.59842E-1,5.92E0,-1.18075565E-1,1.5E1,-4.4769287E-2,6.51E0,6.810303E-2,1.8815461E-1],"split_indices":[1,0,2,0,0,0,2,0,0],"split_type":[0,0,0,0,0,0,0,0,0],"sum_hessian":[1E1,1E0,9E0,3E0,6E0,1E0,5E0,2E0,3E0],"tree_param":{"num_deleted":"0","num_feature":"5","num_nodes":"9","size_leaf_vector":"1"}},{"base_weights":[-2.9913884E-1,-6.4586794E-1,1.0152588E-1,-3.0500793E-1,3.193272E-1,-1.0820923E-1,-2.0690918E-2,-3.8058475E-2,4.148356E-1,3.457947E-2,1.3550904E-1],"categories":[],"categories_nodes":[],"categories_segments":[],"categories_sizes":[],"default_left":[0,0,0,0,0,0,0,0,0,0,0],"id":18,"left_children":[1,-1,3,5,7,-1,-1,-1,9,-1,-1],"loss_changes":[8.388648E0,0E0,9.828334E-1,2.7702183E-2,3.509301E-1,0E0,0E0,0E0,1.4190435E-2,0E0,0E0],"parents":[2147483647,0,0,2,2,3,3,4,4,8,8],"right_children":[2,-1,4,6,8,-1,-1,-1,10,-1,-1],"split_conditions":[9.166667E0,-6.4586794E-1,5.92E0,1.8E1,1.5E1,-1.0820923E-1,-2.0690918E-2,-3.8058475E-2,6.27E0,3.457947E-2,1.3550904E-1],"split_indices":[1,0,2,0,0,0,0,0,2,0,0],"split_type":[0,0,0,0,0,0,0,0,0,0,0],"sum_hessian":[1E1,1E0,9E0,3E0,6E0,2E0,1E0,1E0,5E0,1E0,4E0],"tree_param":{"num_deleted":"0","num_feature":"5","num_nodes":"11","size_leaf_vector":"1"}},{"base_weights":[-2.6782227E-1,-5.4898685E-1,7.138672E-2,-1.1769322E-1,1.1532898E-1,-2.3970947E-1,3.7469484E-2,-8.109742E-2,-1.7587282E-2],"categories":[],"categories_nodes":[],"categories_segments":[],"categories_sizes":[],"default_left":[0,0,0,0,0,0,0,0,0],"id":19,"left_children":[1,-1,3,5,-1,7,-1,-1,-1],"loss_changes":[5.959422E0,0E0,6.371467E-1,2.3714003E-1,0E0,1.1872232E-2,0E0,0E0,0E0],"parents":[2147483647,0,0,2,2,3,3,5,5],"right_children":[2,-1,4,6,-1,8,-1,-1,-1],"split_conditions":[9.166667E0,-5.4898685E-1,1.273E1,2.1E1,1.1532898E-1,1.8E1,3.7469484E-2,-8.109742E-2,-1.7587282E-2],"split_indices":[1,0,2,0,0,0,0,0,0],"split_type":[0,0,0,0,0,0,0,0,0],"sum_hessian":[1E1,1E0,9E0,6E0,3E0,4E0,2E0,3E0,1E0],"tree_param":{"num_deleted":"0","num_feature":"5","num_nodes":"9","size_leaf_vector":"1"}},{"base_weights":[-2.3246627E-1,-4.6663514E-1,5.5377197E-2,-2.0077515E-1,1.9383894E-1,-8.416443E-2,-2.420044E-2,-2.0178223E-2,2.4856567E-1,2.9974366E-2,8.937378E-2],"categories":[],"categories_nodes":[],"categories_segments":[],"categories_sizes":[],"default_left":[0,0,0,0,0,0,0,0,0,0,0],"id":20,"left_children":[1,-1,3,5,7,-1,-1,-1,9,-1,-1],"loss_changes":[4.275072E0,0E0,3.9359102E-1,1.5693873E-2,1.1674267E-1,0E0,0E0,0E0,1.4247E-2,0E0,0E0],"parents":[2147483647,0,0,2,2,3,3,4,4,8,8],"right_children":[2,-1,4,6,8,-1,-1,-1,10,-1,-1],"split_conditions":[9.166667E0,-4.6663514E-1,5.92E0,1.7E1,1.5E1,-8.416443E-2,-2.420044E-2,-2.0178223E-2,6.51E0,2.9974366E-2,8.937378E-2],"split_indices":[1,0,2,0,0,0,0,0,2,0,0],"split_type":[0,0,0,0,0,0,0,0,0,0,0],"sum_hessian":[1E1,1E0,9E0,3E0,6E0,1E0,2E0,1E0,5E0,2E0,3E0],"tree_param":{"num_deleted":"0","num_feature":"5","num_nodes":"11","size_leaf_vector":"1"}},{"base_weights":[-2.0597701E-1,-3.9664307E-1,3.7854005E-2,-1.6763306E-1,1.4986746E-1,-7.153931E-2,-1.9360352E-2,-1.7147828E-2,1.9389851E-1,2.3980713E-2,6.92688E-2],"categories":[],"categories_nodes":[],"categories_segments":[],"categories_sizes":[],"default_left":[0,0,0,0,0,0,0,0,0,0,0],"id":21,"left_children":[1,-1,3,5,7,-1,-1,-1,9,-1,-1],"loss_changes":[3.0437646E0,0E0,2.552959E-1,1.3821244E-2,7.489242E-2,0E0,0E0,0E0,6.8411827E-3,0E0,0E0],"parents":[2147483647,0,0,2,2,3,3,4,4,8,8],"right_children":[2,-1,4,6,8,-1,-1,-1,10,-1,-1],"split_conditions":[9.166667E0,-3.9664307E-1,5.92E0,1.7E1,1.5E1,-7.153931E-2,-1.9360352E-2,-1.7147828E-2,6.51E0,2.3980713E-2,6.92688E-2],"split_indices":[1,0,2,0,0,0,0,0,2,0,0],"split_type":[0,0,0,0,0,0,0,0,0,0,0],"sum_hessian":[1E1,1E0,9E0,3E0,6E0,1E0,2E0,1E0,5E0,2E0,3E0],"tree_param":{"num_deleted":"0","num_feature":"5","num_nodes":"11","size_leaf_vector":"1"}},{"base_weights":[-1.8159069E-1,-3.3714294E-1,2.5012206E-2,-1.4007568E-1,1.15774974E-1,-6.080933E-2,-1.5490723E-2,-1.45751955E-2,1.5126546E-1,1.9183349E-2,5.3681947E-2],"categories":[],"categories_nodes":[],"categories_segments":[],"categories_sizes":[],"default_left":[0,0,0,0,0,0,0,0,0,0,0],"id":22,"left_children":[1,-1,3,5,7,-1,-1,-1,9,-1,-1],"loss_changes":[2.1694262E0,0E0,1.6605559E-1,1.168672E-2,4.818134E-2,0E0,0E0,0E0,3.0570924E-3,0E0,0E0],"parents":[2147483647,0,0,2,2,3,3,4,4,8,8],"right_children":[2,-1,4,6,8,-1,-1,-1,10,-1,-1],"split_conditions":[9.166667E0,-3.3714294E-1,5.92E0,1.7E1,1.5E1,-6.080933E-2,-1.5490723E-2,-1.45751955E-2,6.51E0,1.9183349E-2,5.3681947E-2],"split_indices":[1,0,2,0,0,0,0,0,2,0,0],"split_type":[0,0,0,0,0,0,0,0,0,0,0],"sum_hessian":[1E1,1E0,9E0,3E0,6E0,1E0,2E0,1E0,5E0,2E0,3E0],"tree_param":{"num_deleted":"0","num_feature":"5","num_nodes":"11","size_leaf_vector":"1"}},{"base_weights":[-1.5940164E-1,-2.8656924E-1,1.5704345E-2,-1.17126465E-1,8.9364186E-2,-5.1690675E-2,-1.2390138E-2,-1.2387086E-2,1.18021645E-1,1.5350342E-2,4.1596986E-2],"categories":[],"categories_nodes":[],"categories_segments":[],"categories_sizes":[],"default_left":[0,0,0,0,0,0,0,0,0,0,0],"id":23,"left_children":[1,-1,3,5,7,-1,-1,-1,9,-1,-1],"loss_changes":[1.5479E0,0E0,1.0830988E-1,9.618878E-3,3.108272E-2,0E0,0E0,0E0,1.1824071E-3,0E0,0E0],"parents":[2147483647,0,0,2,2,3,3,4,4,8,8],"right_children":[2,-1,4,6,8,-1,-1,-1,10,-1,-1],"split_conditions":[9.166667E0,-2.8656924E-1,5.92E0,1.7E1,1.5E1,-5.1690675E-2,-1.2390138E-2,-1.2387086E-2,6.51E0,1.5350342E-2,4.1596986E-2],"split_indices":[1,0,2,0,0,0,0,0,2,0,0],"split_type":[0,0,0,0,0,0,0,0,0,0,0],"sum_hessian":[1E1,1E0,9E0,3E0,6E0,1E0,2E0,1E0,5E0,2E0,3E0],"tree_param":{"num_deleted":"0","num_feature":"5","num_nodes":"11","size_leaf_vector":"1"}},{"base_weights":[-1.394154E-1,-2.4358521E-1,9.033203E-3,-9.80072E-2,6.890869E-2,-4.393616E-2,-9.912109E-3,-1.0528564E-2,9.209188E-2,2.9981691E-2,7.928467E-3],"categories":[],"categories_nodes":[],"categories_segments":[],"categories_sizes":[],"default_left":[0,0,0,0,0,0,0,0,0,0,0],"id":24,"left_children":[1,-1,3,5,7,-1,-1,-1,9,-1,-1],"loss_changes":[1.1055406E0,0E0,7.0844516E-2,7.750813E-3,2.0109978E-2,0E0,0E0,0E0,4.504025E-4,0E0,0E0],"parents":[2147483647,0,0,2,2,3,3,4,4,8,8],"right_children":[2,-1,4,6,8,-1,-1,-1,10,-1,-1],"split_conditions":[9.166667E0,-2.4358521E-1,5.92E0,1.7E1,1.5E1,-4.393616E-2,-9.912109E-3,-1.0528564E-2,3.3E1,2.9981691E-2,7.928467E-3],"split_indices":[1,0,2,0,0,0,0,0,0,0,0],"split_type":[0,0,0,0,0,0,0,0,0,0,0],"sum_hessian":[1E1,1E0,9E0,3E0,6E0,1E0,2E0,1E0,5E0,4E0,1E0],"tree_param":{"num_deleted":"0","num_feature":"5","num_nodes":"11","size_leaf_vector":"1"}},{"base_weights":[-1.221369E-1,-2.0704652E-1,3.6804199E-3,-1.0333252E-1,4.335022E-2,-3.7344363E-2,-9.155273E-3,1.3916015E-3,2.5488282E-2,-7.7941897E-3,8.489991E-3],"categories":[],"categories_nodes":[],"categories_segments":[],"categories_sizes":[],"default_left":[0,0,0,0,0,0,0,0,0,0,0],"id":25,"left_children":[1,-1,3,5,7,-1,-1,9,-1,-1,-1],"loss_changes":[7.886718E-1,0E0,4.6931308E-2,8.209534E-4,1.3849193E-2,0E0,0E0,4.417961E-3,0E0,0E0,0E0],"parents":[2147483647,0,0,2,2,3,3,4,4,7,7],"right_children":[2,-1,4,6,8,-1,-1,10,-1,-1,-1],"split_conditions":[9.166667E0,-2.0704652E-1,5.23E0,1.7E1,1.273E1,-3.7344363E-2,-9.155273E-3,2.1E1,2.5488282E-2,-7.7941897E-3,8.489991E-3],"split_indices":[1,0,2,0,2,0,0,0,0,0,0],"split_type":[0,0,0,0,0,0,0,0,0,0,0],"sum_hessian":[1E1,1E0,9E0,2E0,7E0,1E0,1E0,4E0,3E0,2E0,2E0],"tree_param":{"num_deleted":"0","num_feature":"5","num_nodes":"11","size_leaf_vector":"1"}},{"base_weights":[-1.0616788E-1,-1.7599183E-1,5.4321287E-4,-8.782959E-2,3.3615112E-2,-3.1741336E-2,-7.781983E-3,1.1230469E-3,1.9747926E-2,-2.0772299E-2,6.793213E-3,-7.7728275E-3,-1.5747071E-3],"categories":[],"categories_nodes":[],"categories_segments":[],"categories_sizes":[],"default_left":[0,0,0,0,0,0,0,0,0,0,0,0,0],"id":26,"left_children":[1,-1,3,5,7,-1,-1,9,-1,11,-1,-1,-1],"loss_changes":[5.643068E-1,0E0,3.2178964E-2,5.928129E-4,8.298969E-3,0E0,0E0,2.826417E-3,0E0,1.0323583E-4,0E0,0E0,0E0],"parents":[2147483647,0,0,2,2,3,3,4,4,7,7,9,9],"right_children":[2,-1,4,6,8,-1,-1,10,-1,12,-1,-1,-1],"split_conditions":[9.166667E0,-1.7599183E-1,5.23E0,1.7E1,1.273E1,-3.1741336E-2,-7.781983E-3,2.1E1,1.9747926E-2,1.5E1,6.793213E-3,-7.7728275E-3,-1.5747071E-3],"split_indices":[1,0,2,0,2,0,0,0,0,0,0,0,0],"split_type":[0,0,0,0,0,0,0,0,0,0,0,0,0],"sum_hessian":[1E1,1E0,9E0,2E0,7E0,1E0,1E0,4E0,3E0,2E0,2E0,1E0,1E0],"tree_param":{"num_deleted":"0","num_feature":"5","num_nodes":"13","size_leaf_vector":"1"}},{"base_weights":[-9.235174E-2,-1.4959717E-1,-1.8554687E-3,-7.4645996E-2,2.5672913E-2,-6.6101076E-3,-2.6980592E-2,-1.7659506E-2,4.3060303E-2,-6.6101076E-3,-1.33667E-3,5.438233E-3,1.52984625E-2],"categories":[],"categories_nodes":[],"categories_segments":[],"categories_sizes":[],"default_left":[0,0,0,0,0,0,0,0,0,0,0,0,0],"id":27,"left_children":[1,-1,3,5,7,-1,-1,9,11,-1,-1,-1,-1],"loss_changes":[4.035352E-1,0E0,2.1954434E-2,4.3161027E-4,6.7879236E-3,0E0,0E0,7.5096905E-5,2.625836E-4,0E0,0E0,0E0,0E0],"parents":[2147483647,0,0,2,2,3,3,4,4,7,7,8,8],"right_children":[2,-1,4,6,8,-1,-1,10,12,-1,-1,-1,-1],"split_conditions":[9.166667E0,-1.4959717E-1,1.7E1,1.5E1,5.92E0,-6.6101076E-3,-2.6980592E-2,1.8E1,6.51E0,-6.6101076E-3,-1.33667E-3,5.438233E-3,1.52984625E-2],"split_indices":[1,0,0,0,2,0,0,0,2,0,0,0,0],"split_type":[0,0,0,0,0,0,0,0,0,0,0,0,0],"sum_hessian":[1E1,1E0,9E0,2E0,7E0,1E0,1E0,2E0,5E0,1E0,1E0,2E0,3E0],"tree_param":{"num_deleted":"0","num_feature":"5","num_nodes":"13","size_leaf_vector":"1"}},{"base_weights":[-8.014471E-2,-1.271576E-1,-3.3874512E-3,-6.3456215E-2,1.9561768E-2,-5.6213383E-3,-2.293396E-2,-1.5014648E-2,3.358968E-2,-5.6213383E-3,-1.1352539E-3,4.351807E-3,1.1851502E-2],"categories":[],"categories_nodes":[],"categories_segments":[],"categories_sizes":[],"default_left":[0,0,0,0,0,0,0,0,0,0,0,0,0],"id":28,"left_children":[1,-1,3,5,7,-1,-1,9,11,-1,-1,-1,-1],"loss_changes":[2.887721E-1,0E0,1.5026628E-2,3.1028036E-4,4.384617E-3,0E0,0E0,5.45308E-5,1.04255974E-4,0E0,0E0,0E0,0E0],"parents":[2147483647,0,0,2,2,3,3,4,4,7,7,8,8],"right_children":[2,-1,4,6,8,-1,-1,10,12,-1,-1,-1,-1],"split_conditions":[9.166667E0,-1.271576E-1,1.7E1,1.5E1,5.92E0,-5.6213383E-3,-2.293396E-2,1.8E1,6.51E0,-5.6213383E-3,-1.1352539E-3,4.351807E-3,1.1851502E-2],"split_indices":[1,0,0,0,2,0,0,0,2,0,0,0,0],"split_type":[0,0,0,0,0,0,0,0,0,0,0,0,0],"sum_hessian":[1E1,1E0,9E0,2E0,7E0,1E0,1E0,2E0,5E0,1E0,1E0,2E0,3E0],"tree_param":{"num_deleted":"0","num_feature":"5","num_nodes":"13","size_leaf_vector":"1"}},{"base_weights":[-6.939142E-2,-1.0808716E-1,-4.272461E-3,-5.3934734E-2,1.4884949E-2,-4.779053E-3,-1.9491578E-2,-1.2756348E-2,2.6224772E-2,-4.779053E-3,-9.6130377E-4,2.243042E-3,8.543702E-3],"categories":[],"categories_nodes":[],"categories_segments":[],"categories_sizes":[],"default_left":[0,0,0,0,0,0,0,0,0,0,0,0,0],"id":29,"left_children":[1,-1,3,5,7,-1,-1,9,11,-1,-1,-1,-1],"loss_changes":[2.068342E-1,0E0,1.0316821E-2,2.2337679E-4,2.8421115E-3,0E0,0E0,3.9903447E-5,4.064152E-5,0E0,0E0,0E0,0E0],"parents":[2147483647,0,0,2,2,3,3,4,4,7,7,8,8],"right_children":[2,-1,4,6,8,-1,-1,10,12,-1,-1,-1,-1],"split_conditions":[9.166667E0,-1.0808716E-1,1.7E1,1.5E1,5.92E0,-4.779053E-3,-1.9491578E-2,1.8E1,6.27E0,-4.779053E-3,-9.6130377E-4,2.243042E-3,8.543702E-3],"split_indices":[1,0,0,0,2,0,0,0,2,0,0,0,0],"split_type":[0,0,0,0,0,0,0,0,0,0,0,0,0],"sum_hessian":[1E1,1E0,9E0,2E0,7E0,1E0,1E0,2E0,5E0,1E0,1E0,1E0,4E0],"tree_param":{"num_deleted":"0","num_feature":"5","num_nodes":"13","size_leaf_vector":"1"}},{"base_weights":[-6.015292E-2,-9.187317E-2,-4.9194335E-3,-4.5857746E-2,1.1047363E-2,-4.064942E-3,-1.6571045E-2,-1.0843913E-2,2.0151773E-2,-4.064942E-3,-8.1481936E-4,2.4047852E-3,7.2647096E-3],"categories":[],"categories_nodes":[],"categories_segments":[],"categories_sizes":[],"default_left":[0,0,0,0,0,0,0,0,0,0,0,0,0],"id":30,"left_children":[1,-1,3,5,7,-1,-1,9,11,-1,-1,-1,-1],"loss_changes":[1.4801055E-1,0E0,7.0431447E-3,1.6060704E-4,1.8129814E-3,0E0,0E0,2.9177085E-5,1.01802405E-4,0E0,0E0,0E0,0E0],"parents":[2147483647,0,0,2,2,3,3,4,4,7,7,8,8],"right_children":[2,-1,4,6,8,-1,-1,10,12,-1,-1,-1,-1],"split_conditions":[9.166667E0,-9.187317E-2,1.7E1,1.5E1,5.92E0,-4.064942E-3,-1.6571045E-2,1.8E1,6.51E0,-4.064942E-3,-8.1481936E-4,2.4047852E-3,7.2647096E-3],"split_indices":[1,0,0,0,2,0,0,0,2,0,0,0,0],"split_type":[0,0,0,0,0,0,0,0,0,0,0,0,0],"sum_hessian":[1E1,1E0,9E0,2E0,7E0,1E0,1E0,2E0,5E0,1E0,1E0,2E0,3E0],"tree_param":{"num_deleted":"0","num_feature":"5","num_nodes":"13","size_leaf_vector":"1"}},{"base_weights":[-5.1896527E-2,-7.809448E-2,-5.0231935E-3,-3.898112E-2,8.338928E-3,-3.4515383E-3,-1.4089966E-2,-9.216309E-3,1.5726725E-2,-3.4515383E-3,-6.958008E-4,1.9287111E-3,5.630493E-3],"categories":[],"categories_nodes":[],"categories_segments":[],"categories_sizes":[],"default_left":[0,0,0,0,0,0,0,0,0,0,0,0,0],"id":31,"left_children":[1,-1,3,5,7,-1,-1,9,11,-1,-1,-1,-1],"loss_changes":[1.0615431E-1,0E0,4.8625604E-3,1.1786679E-4,1.1824985E-3,0E0,0E0,2.0673499E-5,4.9016206E-5,0E0,0E0,0E0,0E0],"parents":[2147483647,0,0,2,2,3,3,4,4,7,7,8,8],"right_children":[2,-1,4,6,8,-1,-1,10,12,-1,-1,-1,-1],"split_conditions":[9.166667E0,-7.809448E-2,1.7E1,1.5E1,5.92E0,-3.4515383E-3,-1.4089966E-2,1.8E1,6.51E0,-3.4515383E-3,-6.958008E-4,1.9287111E-3,5.630493E-3],"split_indices":[1,0,0,0,2,0,0,0,2,0,0,0,0],"split_type":[0,0,0,0,0,0,0,0,0,0,0,0,0],"sum_hessian":[1E1,1E0,9E0,2E0,7E0,1E0,1E0,2E0,5E0,1E0,1E0,2E0,3E0],"tree_param":{"num_deleted":"0","num_feature":"5","num_nodes":"13","size_leaf_vector":"1"}},{"base_weights":[-4.4711027E-2,-6.638489E-2,-4.925537E-3,-3.3121746E-2,6.263733E-3,-2.9296875E-3,-1.1975098E-2,-7.832845E-3,1.2268066E-2,-2.9296875E-3,-5.950928E-4,1.538086E-3,4.3670656E-3],"categories":[],"categories_nodes":[],"categories_segments":[],"categories_sizes":[],"default_left":[0,0,0,0,0,0,0,0,0,0,0,0,0],"id":32,"left_children":[1,-1,3,5,7,-1,-1,9,11,-1,-1,-1,-1],"loss_changes":[7.618506E-2,0E0,3.3624156E-3,8.631754E-5,7.7321834E-4,0E0,0E0,1.4544159E-5,2.3435801E-5,0E0,0E0,0E0,0E0],"parents":[2147483647,0,0,2,2,3,3,4,4,7,7,8,8],"right_children":[2,-1,4,6,8,-1,-1,10,12,-1,-1,-1,-1],"split_conditions":[9.166667E0,-6.638489E-2,1.7E1,1.5E1,5.92E0,-2.9296875E-3,-1.1975098E-2,1.8E1,6.51E0,-2.9296875E-3,-5.950928E-4,1.538086E-3,4.3670656E-3],"split_indices":[1,0,0,0,2,0,0,0,2,0,0,0,0],"split_type":[0,0,0,0,0,0,0,0,0,0,0,0,0],"sum_hessian":[1E1,1E0,9E0,2E0,7E0,1E0,1E0,2E0,5E0,1E0,1E0,2E0,3E0],"tree_param":{"num_deleted":"0","num_feature":"5","num_nodes":"13","size_leaf_vector":"1"}},{"base_weights":[-3.8474344E-2,-5.642395E-2,-4.7058105E-3,-2.8157553E-2,4.676819E-3,-2.4902346E-3,-1.0180664E-2,-6.652832E-3,9.562175E-3,-2.4902346E-3,-5.0354004E-4,1.2329102E-3,3.378296E-3],"categories":[],"categories_nodes":[],"categories_segments":[],"categories_sizes":[],"default_left":[0,0,0,0,0,0,0,0,0,0,0,0,0],"id":33,"left_children":[1,-1,3,5,7,-1,-1,9,11,-1,-1,-1,-1],"loss_changes":[5.4686464E-2,0E0,2.3320776E-3,6.250548E-5,5.0641055E-4,0E0,0E0,1.0659918E-5,9.297044E-6,0E0,0E0,0E0,0E0],"parents":[2147483647,0,0,2,2,3,3,4,4,7,7,8,8],"right_children":[2,-1,4,6,8,-1,-1,10,12,-1,-1,-1,-1],"split_conditions":[9.166667E0,-5.642395E-2,1.7E1,1.5E1,5.92E0,-2.4902346E-3,-1.0180664E-2,1.8E1,6.51E0,-2.4902346E-3,-5.0354004E-4,1.2329102E-3,3.378296E-3],"split_indices":[1,0,0,0,2,0,0,0,2,0,0,0,0],"split_type":[0,0,0,0,0,0,0,0,0,0,0,0,0],"sum_hessian":[1E1,1E0,9E0,2E0,7E0,1E0,1E0,2E0,5E0,1E0,1E0,2E0,3E0],"tree_param":{"num_deleted":"0","num_feature":"5","num_nodes":"13","size_leaf_vector":"1"}},{"base_weights":[-3.305886E-2,-4.796448E-2,-4.388428E-3,-2.3925781E-2,3.4866333E-3,-2.1148683E-3,-8.651733E-3,-5.6559243E-3,7.4768066E-3,-2.1148683E-3,-4.3029786E-4,2.4353028E-3,6.4086914E-4],"categories":[],"categories_nodes":[],"categories_segments":[],"categories_sizes":[],"default_left":[0,0,0,0,0,0,0,0,0,0,0,0,0],"id":34,"left_children":[1,-1,3,5,7,-1,-1,9,11,-1,-1,-1,-1],"loss_changes":[3.9295055E-2,0E0,1.621999E-3,4.5452267E-5,3.341314E-4,0E0,0E0,7.5387434E-6,3.1944364E-6,0E0,0E0,0E0,0E0],"parents":[2147483647,0,0,2,2,3,3,4,4,7,7,8,8],"right_children":[2,-1,4,6,8,-1,-1,10,12,-1,-1,-1,-1],"split_conditions":[9.166667E0,-4.796448E-2,1.7E1,1.5E1,5.92E0,-2.1148683E-3,-8.651733E-3,1.8E1,3.3E1,-2.1148683E-3,-4.3029786E-4,2.4353028E-3,6.4086914E-4],"split_indices":[1,0,0,0,2,0,0,0,0,0,0,0,0],"split_type":[0,0,0,0,0,0,0,0,0,0,0,0,0],"sum_hessian":[1E1,1E0,9E0,2E0,7E0,1E0,1E0,2E0,5E0,1E0,1E0,4E0,1E0],"tree_param":{"num_deleted":"0","num_feature":"5","num_nodes":"13","size_leaf_vector":"1"}},{"base_weights":[-2.8425736E-2,-4.0768433E-2,-4.0893555E-3,-2.0324707E-2,2.5100708E-3,-1.7944337E-3,-7.351685E-3,-4.801432E-3,5.747477E-3,-1.7944337E-3,-3.6621094E-4,6.8359374E-4,2.0736696E-3],"categories":[],"categories_nodes":[],"categories_segments":[],"categories_sizes":[],"default_left":[0,0,0,0,0,0,0,0,0,0,0,0,0],"id":35,"left_children":[1,-1,3,5,7,-1,-1,9,11,-1,-1,-1,-1],"loss_changes":[2.8213758E-2,0E0,1.1224565E-3,3.3324584E-5,2.1695858E-4,0E0,0E0,5.3743497E-6,8.491479E-6,0E0,0E0,0E0,0E0],"parents":[2147483647,0,0,2,2,3,3,4,4,7,7,8,8],"right_children":[2,-1,4,6,8,-1,-1,10,12,-1,-1,-1,-1],"split_conditions":[9.166667E0,-4.0768433E-2,1.7E1,1.5E1,5.92E0,-1.7944337E-3,-7.351685E-3,1.8E1,6.51E0,-1.7944337E-3,-3.6621094E-4,6.8359374E-4,2.0736696E-3],"split_indices":[1,0,0,0,2,0,0,0,2,0,0,0,0],"split_type":[0,0,0,0,0,0,0,0,0,0,0,0,0],"sum_hessian":[1E1,1E0,9E0,2E0,7E0,1E0,1E0,2E0,5E0,1E0,1E0,2E0,3E0],"tree_param":{"num_deleted":"0","num_feature":"5","num_nodes":"13","size_leaf_vector":"1"}},{"base_weights":[-2.4386318E-2,-3.465271E-2,-3.7231445E-3,-1.7293295E-2,1.8310547E-3,-1.5289307E-3,-6.253052E-3,-4.0893555E-3,4.486084E-3,-1.5289307E-3,-3.1127932E-4,5.493164E-4,1.6067505E-3],"categories":[],"categories_nodes":[],"categories_segments":[],"categories_sizes":[],"default_left":[0,0,0,0,0,0,0,0,0,0,0,0,0],"id":36,"left_children":[1,-1,3,5,7,-1,-1,9,11,-1,-1,-1,-1],"loss_changes":[2.0281674E-2,0E0,7.853781E-4,2.3676723E-5,1.4409609E-4,0E0,0E0,3.932044E-6,4.0484592E-6,0E0,0E0,0E0,0E0],"parents":[2147483647,0,0,2,2,3,3,4,4,7,7,8,8],"right_children":[2,-1,4,6,8,-1,-1,10,12,-1,-1,-1,-1],"split_conditions":[9.166667E0,-3.465271E-2,1.7E1,1.5E1,5.92E0,-1.5289307E-3,-6.253052E-3,1.8E1,6.51E0,-1.5289307E-3,-3.1127932E-4,5.493164E-4,1.6067505E-3],"split_indices":[1,0,0,0,2,0,0,0,2,0,0,0,0],"split_type":[0,0,0,0,0,0,0,0,0,0,0,0,0],"sum_hessian":[1E1,1E0,9E0,2E0,7E0,1E0,1E0,2E0,5E0,1E0,1E0,2E0,3E0],"tree_param":{"num_deleted":"0","num_feature":"5","num_nodes":"13","size_leaf_vector":"1"}},{"base_weights":[-2.0896219E-2,-2.9452516E-2,-3.3508302E-3,-1.4709473E-2,1.3275146E-3,-1.3000489E-3,-5.319214E-3,-3.479004E-3,3.5095215E-3,-1.3000489E-3,-2.6550295E-4,4.3945314E-4,1.2496948E-3],"categories":[],"categories_nodes":[],"categories_segments":[],"categories_sizes":[],"default_left":[0,0,0,0,0,0,0,0,0,0,0,0,0],"id":37,"left_children":[1,-1,3,5,7,-1,-1,9,11,-1,-1,-1,-1],"loss_changes":[1.4585789E-2,0E0,5.509235E-4,1.7208979E-5,9.611249E-5,0E0,0E0,2.8144568E-6,1.9473955E-6,0E0,0E0,0E0,0E0],"parents":[2147483647,0,0,2,2,3,3,4,4,7,7,8,8],"right_children":[2,-1,4,6,8,-1,-1,10,12,-1,-1,-1,-1],"split_conditions":[9.166667E0,-2.9452516E-2,1.7E1,1.5E1,5.92E0,-1.3000489E-3,-5.319214E-3,1.8E1,6.51E0,-1.3000489E-3,-2.6550295E-4,4.3945314E-4,1.2496948E-3],"split_indices":[1,0,0,0,2,0,0,0,2,0,0,0,0],"split_type":[0,0,0,0,0,0,0,0,0,0,0,0,0],"sum_hessian":[1E1,1E0,9E0,2E0,7E0,1E0,1E0,2E0,5E0,1E0,1E0,2E0,3E0],"tree_param":{"num_deleted":"0","num_feature":"5","num_nodes":"13","size_leaf_vector":"1"}},{"base_weights":[-1.788885E-2,-2.5030518E-2,-2.9907227E-3,-1.2512207E-2,9.536743E-4,-1.1077882E-3,-4.5227055E-3,-2.9703777E-3,8.2702644E-4,-1.1077882E-3,-2.2888185E-4],"categories":[],"categories_nodes":[],"categories_segments":[],"categories_sizes":[],"default_left":[0,0,0,0,0,0,0,0,0,0,0],"id":38,"left_children":[1,-1,3,5,7,-1,-1,9,-1,-1,-1],"loss_changes":[1.0492142E-2,0E0,3.874977E-4,1.2157485E-5,6.4791646E-5,0E0,0E0,1.965711E-6,0E0,0E0,0E0],"parents":[2147483647,0,0,2,2,3,3,4,4,7,7],"right_children":[2,-1,4,6,8,-1,-1,10,-1,-1,-1],"split_conditions":[9.166667E0,-2.5030518E-2,1.7E1,1.5E1,5.92E0,-1.1077882E-3,-4.5227055E-3,1.8E1,8.2702644E-4,-1.1077882E-3,-2.2888185E-4],"split_indices":[1,0,0,0,2,0,0,0,0,0,0],"split_type":[0,0,0,0,0,0,0,0,0,0,0],"sum_hessian":[1E1,1E0,9E0,2E0,7E0,1E0,1E0,2E0,5E0,1E0,1E0],"tree_param":{"num_deleted":"0","num_feature":"5","num_nodes":"11","size_leaf_vector":"1"}},{"base_weights":[-1.5369762E-2,-2.1276856E-2,-2.7221679E-3,-1.0640462E-2,5.874634E-4,-9.429932E-4,-3.845215E-3,-2.5227864E-3,2.0446777E-3,-9.429932E-4,-1.9226075E-4,1.8310547E-4,7.827759E-4],"categories":[],"categories_nodes":[],"categories_segments":[],"categories_sizes":[],"default_left":[0,0,0,0,0,0,0,0,0,0,0,0,0],"id":39,"left_children":[1,-1,3,5,7,-1,-1,9,11,-1,-1,-1,-1],"loss_changes":[7.535678E-3,0E0,2.6831724E-4,8.673087E-6,4.1416693E-5,0E0,0E0,1.4888737E-6,3.2661483E-6,0E0,0E0,0E0,0E0],"parents":[2147483647,0,0,2,2,3,3,4,4,7,7,8,8],"right_children":[2,-1,4,6,8,-1,-1,10,12,-1,-1,-1,-1],"split_conditions":[9.166667E0,-2.1276856E-2,1.7E1,1.5E1,5.92E0,-9.429932E-4,-3.845215E-3,1.8E1,6.51E0,-9.429932E-4,-1.9226075E-4,1.8310547E-4,7.827759E-4],"split_indices":[1,0,0,0,2,0,0,0,2,0,0,0,0],"split_type":[0,0,0,0,0,0,0,0,0,0,0,0,0],"sum_hessian":[1E1,1E0,9E0,2E0,7E0,1E0,1E0,2E0,5E0,1E0,1E0,2E0,3E0],"tree_param":{"num_deleted":"0","num_feature":"5","num_nodes":"13","size_leaf_vector":"1"}},{"base_weights":[-1.3150302E-2,-1.8081665E-2,-2.4108887E-3,-9.053548E-3,3.8146973E-4,-8.056641E-4,-3.2684328E-3,-2.1565754E-3,1.5869141E-3,-8.056641E-4,-1.6479492E-4,1.4648438E-4,6.042481E-4],"categories":[],"categories_nodes":[],"categories_segments":[],"categories_sizes":[],"default_left":[0,0,0,0,0,0,0,0,0,0,0,0,0],"id":40,"left_children":[1,-1,3,5,7,-1,-1,9,11,-1,-1,-1,-1],"loss_changes":[5.4213693E-3,0E0,1.8894052E-4,5.916372E-6,2.7898077E-5,0E0,0E0,1.0753674E-6,1.8328428E-6,0E0,0E0,0E0,0E0],"parents":[2147483647,0,0,2,2,3,3,4,4,7,7,8,8],"right_children":[2,-1,4,6,8,-1,-1,10,12,-1,-1,-1,-1],"split_conditions":[9.166667E0,-1.8081665E-2,1.7E1,1.5E1,5.92E0,-8.056641E-4,-3.2684328E-3,1.8E1,6.51E0,-8.056641E-4,-1.6479492E-4,1.4648438E-4,6.042481E-4],"split_indices":[1,0,0,0,2,0,0,0,2,0,0,0,0],"split_type":[0,0,0,0,0,0,0,0,0,0,0,0,0],"sum_hessian":[1E1,1E0,9E0,2E0,7E0,1E0,1E0,2E0,5E0,1E0,1E0,2E0,3E0],"tree_param":{"num_deleted":"0","num_feature":"5","num_nodes":"13","size_leaf_vector":"1"}},{"base_weights":[-1.1236018E-2,-1.53717045E-2,-2.1118163E-3,-7.6904297E-3,2.4414062E-4,-6.866455E-4,-2.774048E-3,-5.493164E-4,3.7231448E-4],"categories":[],"categories_nodes":[],"categories_segments":[],"categories_sizes":[],"default_left":[0,0,0,0,0,0,0,0,0],"id":41,"left_children":[1,-1,3,5,7,-1,-1,-1,-1],"loss_changes":[3.9067417E-3,0E0,1.3330727E-4,4.056841E-6,1.8822651E-5,0E0,0E0,0E0,0E0],"parents":[2147483647,0,0,2,2,3,3,4,4],"right_children":[2,-1,4,6,8,-1,-1,-1,-1],"split_conditions":[9.166667E0,-1.53717045E-2,1.7E1,1.5E1,5.92E0,-6.866455E-4,-2.774048E-3,-5.493164E-4,3.7231448E-4],"split_indices":[1,0,0,0,2,0,0,0,0],"split_type":[0,0,0,0,0,0,0,0,0],"sum_hessian":[1E1,1E0,9E0,2E0,7E0,1E0,1E0,2E0,5E0],"tree_param":{"num_deleted":"0","num_feature":"5","num_nodes":"9","size_leaf_vector":"1"}},{"base_weights":[-9.593617E-3,-1.3064575E-2,-1.8432618E-3,-6.591797E-3,1.6784668E-4,-2.3620606E-3,-6.042481E-4,-5.859375E-4,7.498605E-4,9.155274E-6,3.845215E-4],"categories":[],"categories_nodes":[],"categories_segments":[],"categories_sizes":[],"default_left":[0,0,0,0,0,0,0,0,0,0,0],"id":42,"left_children":[1,-1,3,5,7,-1,-1,-1,9,-1,-1],"loss_changes":[2.814522E-3,0E0,9.66046E-5,1.7434359E-6,1.1340049E-5,0E0,0E0,0E0,2.6391021E-6,0E0,0E0],"parents":[2147483647,0,0,2,2,3,3,4,4,8,8],"right_children":[2,-1,4,6,8,-1,-1,-1,10,-1,-1],"split_conditions":[9.166667E0,-1.3064575E-2,5.23E0,1.7E1,1.5E1,-2.3620606E-3,-6.042481E-4,-5.859375E-4,6.51E0,9.155274E-6,3.845215E-4],"split_indices":[1,0,2,0,0,0,0,0,2,0,0],"split_type":[0,0,0,0,0,0,0,0,0,0,0],"sum_hessian":[1E1,1E0,9E0,2E0,7E0,1E0,1E0,1E0,6E0,3E0,3E0],"tree_param":{"num_deleted":"0","num_feature":"5","num_nodes":"11","size_leaf_vector":"1"}},{"base_weights":[-8.178711E-3,-1.1105347E-2,-1.5930176E-3,-5.594889E-3,1.0681152E-4,-2.005005E-3,-5.1269535E-4,-4.943848E-4,5.9291295E-4,-3.6621095E-5,2.709961E-4],"categories":[],"categories_nodes":[],"categories_segments":[],"categories_sizes":[],"default_left":[0,0,0,0,0,0,0,0,0,0,0],"id":43,"left_children":[1,-1,3,5,7,-1,-1,-1,9,-1,-1],"loss_changes":[2.030211E-3,0E0,6.862258E-5,1.2672172E-6,7.8010235E-6,0E0,0E0,0E0,1.663821E-6,0E0,0E0],"parents":[2147483647,0,0,2,2,3,3,4,4,8,8],"right_children":[2,-1,4,6,8,-1,-1,-1,10,-1,-1],"split_conditions":[9.166667E0,-1.1105347E-2,5.23E0,1.7E1,1.5E1,-2.005005E-3,-5.1269535E-4,-4.943848E-4,6.27E0,-3.6621095E-5,2.709961E-4],"split_indices":[1,0,2,0,0,0,0,0,2,0,0],"split_type":[0,0,0,0,0,0,0,0,0,0,0],"sum_hessian":[1E1,1E0,9E0,2E0,7E0,1E0,1E0,1E0,6E0,2E0,4E0],"tree_param":{"num_deleted":"0","num_feature":"5","num_nodes":"11","size_leaf_vector":"1"}},{"base_weights":[-6.974654E-3,-9.4390875E-3,-1.3793946E-3,-1.4282227E-3,6.1035156E-5,-4.2114258E-4,4.7084264E-4,-0E0,2.471924E-4],"categories":[],"categories_nodes":[],"categories_segments":[],"categories_sizes":[],"default_left":[0,0,0,0,0,0,0,0,0],"id":44,"left_children":[1,-1,3,-1,5,-1,7,-1,-1],"loss_changes":[1.4638428E-3,0E0,4.899651E-5,0E0,5.4634042E-6,0E0,1.1638871E-6,0E0,0E0],"parents":[2147483647,0,0,2,2,4,4,6,6],"right_children":[2,-1,4,-1,6,-1,8,-1,-1],"split_conditions":[9.166667E0,-9.4390875E-3,5.23E0,-1.4282227E-3,1.5E1,-4.2114258E-4,6.51E0,-0E0,2.471924E-4],"split_indices":[1,0,2,0,0,0,2,0,0],"split_type":[0,0,0,0,0,0,0,0,0],"sum_hessian":[1E1,1E0,9E0,2E0,7E0,1E0,6E0,3E0,3E0],"tree_param":{"num_deleted":"0","num_feature":"5","num_nodes":"9","size_leaf_vector":"1"}},{"base_weights":[-5.887118E-3,-8.02002E-3,-1.1291504E-3,-4.1097007E-3,1.296997E-4,-3.570557E-4,-1.4923096E-3,-1.8310547E-4,1.4343263E-4],"categories":[],"categories_nodes":[],"categories_segments":[],"categories_sizes":[],"default_left":[0,0,0,0,0,0,0,0,0],"id":45,"left_children":[1,-1,3,5,7,-1,-1,-1,-1],"loss_changes":[1.0608592E-3,0E0,3.8053684E-5,1.6527883E-6,2.3545385E-6,0E0,0E0,0E0,0E0],"parents":[2147483647,0,0,2,2,3,3,4,4],"right_children":[2,-1,4,6,8,-1,-1,-1,-1],"split_conditions":[9.166667E0,-8.02002E-3,1.7E1,1.5E1,5.92E0,-3.570557E-4,-1.4923096E-3,-1.8310547E-4,1.4343263E-4],"split_indices":[1,0,0,0,2,0,0,0,0],"split_type":[0,0,0,0,0,0,0,0,0],"sum_hessian":[1E1,1E0,9E0,2E0,7E0,1E0,1E0,2E0,5E0],"tree_param":{"num_deleted":"0","num_feature":"5","num_nodes":"9","size_leaf_vector":"1"}},{"base_weights":[-5.01598E-3,-6.820679E-3,-9.7045896E-4,-3.4993489E-3,9.918213E-5,-3.0212404E-4,-1.272583E-3,-1.14440925E-4,1.3916015E-4],"categories":[],"categories_nodes":[],"categories_segments":[],"categories_sizes":[],"default_left":[0,0,0,0,0,0,0,0,0],"id":46,"left_children":[1,-1,3,5,7,-1,-1,-1,-1],"loss_changes":[7.6647184E-4,0E0,2.7397118E-5,1.2802593E-6,1.5792436E-6,0E0,0E0,0E0,0E0],"parents":[2147483647,0,0,2,2,3,3,4,4],"right_children":[2,-1,4,6,8,-1,-1,-1,-1],"split_conditions":[9.166667E0,-6.820679E-3,1.7E1,1.5E1,6.27E0,-3.0212404E-4,-1.272583E-3,-1.14440925E-4,1.3916015E-4],"split_indices":[1,0,0,0,2,0,0,0,0],"split_type":[0,0,0,0,0,0,0,0,0],"sum_hessian":[1E1,1E0,9E0,2E0,7E0,1E0,1E0,3E0,4E0],"tree_param":{"num_deleted":"0","num_feature":"5","num_nodes":"9","size_leaf_vector":"1"}},{"base_weights":[-4.2613638E-3,-5.7952884E-3,-8.239746E-4,-8.9111336E-4,8.392334E-5,-1.8310547E-4,8.1089565E-5],"categories":[],"categories_nodes":[],"categories_segments":[],"categories_sizes":[],"default_left":[0,0,0,0,0,0,0],"id":47,"left_children":[1,-1,3,-1,5,-1,-1],"loss_changes":[5.5337936E-4,0E0,1.9736433E-5,0E0,1.2001422E-6,0E0,0E0],"parents":[2147483647,0,0,2,2,4,4],"right_children":[2,-1,4,-1,6,-1,-1],"split_conditions":[9.166667E0,-5.7952884E-3,1.7E1,-8.9111336E-4,3.51E0,-1.8310547E-4,8.1089565E-5],"split_indices":[1,0,0,0,2,0,0],"split_type":[0,0,0,0,0,0,0],"sum_hessian":[1E1,1E0,9E0,2E0,7E0,1E0,6E0],"tree_param":{"num_deleted":"0","num_feature":"5","num_nodes":"7","size_leaf_vector":"1"}},{"base_weights":[-3.5844282E-3,-4.9255374E-3,-6.591797E-4,-2.4414062E-3,2.7465821E-5,-9.429932E-4,-1.5563966E-4],"categories":[],"categories_nodes":[],"categories_segments":[],"categories_sizes":[],"default_left":[0,0,0,0,0,0,0],"id":48,"left_children":[1,-1,3,5,-1,-1,-1],"loss_changes":[4.021473E-4,0E0,1.360327E-5,2.4177134E-6,0E0,0E0,0E0],"parents":[2147483647,0,0,2,2,3,3],"right_children":[2,-1,4,6,-1,-1,-1],"split_conditions":[9.166667E0,-4.9255374E-3,5.23E0,1.7E1,2.7465821E-5,-9.429932E-4,-1.5563966E-4],"split_indices":[1,0,2,0,0,0,0],"split_type":[0,0,0,0,0,0,0],"sum_hessian":[1E1,1E0,9E0,2E0,7E0,1E0,1E0],"tree_param":{"num_deleted":"0","num_feature":"5","num_nodes":"7","size_leaf_vector":"1"}},{"base_weights":[-3.0351118E-3,-4.18396E-3,-5.493164E-4,-2.0751953E-3,2.7465821E-5,-8.056641E-4,-1.2817384E-4],"categories":[],"categories_nodes":[],"categories_segments":[],"categories_sizes":[],"default_left":[0,0,0,0,0,0,0],"id":49,"left_children":[1,-1,3,5,-1,-1,-1],"loss_changes":[2.906981E-4,0E0,9.968877E-6,1.8700957E-6,0E0,0E0,0E0],"parents":[2147483647,0,0,2,2,3,3],"right_children":[2,-1,4,6,-1,-1,-1],"split_conditions":[9.166667E0,-4.18396E-3,5.23E0,1.7E1,2.7465821E-5,-8.056641E-4,-1.2817384E-4],"split_indices":[1,0,2,0,0,0,0],"split_type":[0,0,0,0,0,0,0],"sum_hessian":[1E1,1E0,9E0,2E0,7E0,1E0,1E0],"tree_param":{"num_deleted":"0","num_feature":"5","num_nodes":"7","size_leaf_vector":"1"}},{"base_weights":[-2.5690251E-3,-3.5522461E-3,-4.5776367E-4,-1.7903646E-3,2.975464E-5,-1.1901856E-4,-6.866455E-4],"categories":[],"categories_nodes":[],"categories_segments":[],"categories_sizes":[],"default_left":[0,0,0,0,0,0,0],"id":50,"left_children":[1,-1,3,5,-1,-1,-1],"loss_changes":[2.0990672E-4,0E0,7.5994367E-6,1.1759503E-6,0E0,0E0,0E0],"parents":[2147483647,0,0,2,2,3,3],"right_children":[2,-1,4,6,-1,-1,-1],"split_conditions":[9.166667E0,-3.5522461E-3,1.7E1,1.5E1,2.975464E-5,-1.1901856E-4,-6.866455E-4],"split_indices":[1,0,0,0,0,0,0],"split_type":[0,0,0,0,0,0,0],"sum_hessian":[1E1,1E0,9E0,2E0,7E0,1E0,1E0],"tree_param":{"num_deleted":"0","num_feature":"5","num_nodes":"7","size_leaf_vector":"1"}},{"base_weights":[-2.175071E-3,-3.0212405E-3,-3.7841796E-4,-4.638672E-4,3.204346E-5],"categories":[],"categories_nodes":[],"categories_segments":[],"categories_sizes":[],"default_left":[0,0,0,0,0],"id":51,"left_children":[1,-1,3,-1,-1],"loss_changes":[1.5223378E-4,0E0,5.8316937E-6,0E0,0E0],"parents":[2147483647,0,0,2,2],"right_children":[2,-1,4,-1,-1],"split_conditions":[9.166667E0,-3.0212405E-3,5.23E0,-4.638672E-4,3.204346E-5],"split_indices":[1,0,2,0,0],"split_type":[0,0,0,0,0],"sum_hessian":[1E1,1E0,9E0,2E0,7E0],"tree_param":{"num_deleted":"0","num_feature":"5","num_nodes":"5","size_leaf_vector":"1"}},{"base_weights":[-1.8477007E-3,-2.5634766E-3,-3.2348634E-4,-4.1503907E-4,3.4332275E-5],"categories":[],"categories_nodes":[],"categories_segments":[],"categories_sizes":[],"default_left":[0,0,0,0,0],"id":52,"left_children":[1,-1,3,-1,-1],"loss_changes":[1.0952383E-4,0E0,4.800254E-6,0E0,0E0],"parents":[2147483647,0,0,2,2],"right_children":[2,-1,4,-1,-1],"split_conditions":[9.166667E0,-2.5634766E-3,1.7E1,-4.1503907E-4,3.4332275E-5],"split_indices":[1,0,0,0,0],"split_type":[0,0,0,0,0],"sum_hessian":[1E1,1E0,9E0,2E0,7E0],"tree_param":{"num_deleted":"0","num_feature":"5","num_nodes":"5","size_leaf_vector":"1"}},{"base_weights":[-1.5758168E-3,-2.1789551E-3,-2.807617E-4,-3.2958985E-4,1.8310548E-5],"categories":[],"categories_nodes":[],"categories_segments":[],"categories_sizes":[],"default_left":[0,0,0,0,0],"id":53,"left_children":[1,-1,3,-1,-1],"loss_changes":[7.898076E-5,0E0,2.8625132E-6,0E0,0E0],"parents":[2147483647,0,0,2,2],"right_children":[2,-1,4,-1,-1],"split_conditions":[9.166667E0,-2.1789551E-3,1.7E1,-3.2958985E-4,1.8310548E-5],"split_indices":[1,0,0,0,0],"split_type":[0,0,0,0,0],"sum_hessian":[1E1,1E0,9E0,2E0,7E0],"tree_param":{"num_deleted":"0","num_feature":"5","num_nodes":"5","size_leaf_vector":"1"}},{"base_weights":[-1.3205789E-3,-1.8493653E-3,-2.1972656E-4,-2.990723E-4,2.975464E-5],"categories":[],"categories_nodes":[],"categories_segments":[],"categories_sizes":[],"default_left":[0,0,0,0,0],"id":54,"left_children":[1,-1,3,-1,-1],"loss_changes":[5.7302954E-5,0E0,2.577373E-6,0E0,0E0],"parents":[2147483647,0,0,2,2],"right_children":[2,-1,4,-1,-1],"split_conditions":[9.166667E0,-1.8493653E-3,5.23E0,-2.990723E-4,2.975464E-5],"split_indices":[1,0,2,0,0],"split_type":[0,0,0,0,0],"sum_hessian":[1E1,1E0,9E0,2E0,7E0],"tree_param":{"num_deleted":"0","num_feature":"5","num_nodes":"5","size_leaf_vector":"1"}},{"base_weights":[-1.0986328E-3,-1.5747071E-3,-1.586914E-4,-2.3803712E-4,2.975464E-5],"categories":[],"categories_nodes":[],"categories_segments":[],"categories_sizes":[],"default_left":[0,0,0,0,0],"id":55,"left_children":[1,-1,3,-1,-1],"loss_changes":[4.2079388E-5,0E0,1.7155893E-6,0E0,0E0],"parents":[2147483647,0,0,2,2],"right_children":[2,-1,4,-1,-1],"split_conditions":[9.166667E0,-1.5747071E-3,1.7E1,-2.3803712E-4,2.975464E-5],"split_indices":[1,0,0,0,0],"split_type":[0,0,0,0,0],"sum_hessian":[1E1,1E0,9E0,2E0,7E0],"tree_param":{"num_deleted":"0","num_feature":"5","num_nodes":"5","size_leaf_vector":"1"}},{"base_weights":[-9.099787E-4,-1.33667E-3,-1.0986328E-4,-2.1362306E-4,3.8909915E-5],"categories":[],"categories_nodes":[],"categories_segments":[],"categories_sizes":[],"default_left":[0,0,0,0,0],"id":56,"left_children":[1,-1,3,-1,-1],"loss_changes":[3.071617E-5,0E0,1.535037E-6,0E0,0E0],"parents":[2147483647,0,0,2,2],"right_children":[2,-1,4,-1,-1],"split_conditions":[9.166667E0,-1.33667E-3,5.23E0,-2.1362306E-4,3.8909915E-5],"split_indices":[1,0,2,0,0],"split_type":[0,0,0,0,0],"sum_hessian":[1E1,1E0,9E0,2E0,7E0],"tree_param":{"num_deleted":"0","num_feature":"5","num_nodes":"5","size_leaf_vector":"1"}},{"base_weights":[-7.8235974E-4,-1.1352539E-3,-1.0375977E-4,-1.159668E-4,7.6904296E-5],"categories":[],"categories_nodes":[],"categories_segments":[],"categories_sizes":[],"default_left":[0,0,0,0,0],"id":57,"left_children":[1,-1,3,-1,-1],"loss_changes":[2.2014738E-5,0E0,1.117463E-6,0E0,0E0],"parents":[2147483647,0,0,2,2],"right_children":[2,-1,4,-1,-1],"split_conditions":[9.166667E0,-1.1352539E-3,6.51E0,-1.159668E-4,7.6904296E-5],"split_indices":[1,0,2,0,0],"split_type":[0,0,0,0,0],"sum_hessian":[1E1,1E0,9E0,5E0,4E0],"tree_param":{"num_deleted":"0","num_feature":"5","num_nodes":"5","size_leaf_vector":"1"}},{"base_weights":[-6.436435E-4,-9.6130377E-4,-2.0141602E-5],"categories":[],"categories_nodes":[],"categories_segments":[],"categories_sizes":[],"default_left":[0,0,0],"id":58,"left_children":[1,-1,-1],"loss_changes":[1.6023692E-5,0E0,0E0],"parents":[2147483647,0,0],"right_children":[2,-1,-1],"split_conditions":[9.166667E0,-9.6130377E-4,-2.0141602E-5],"split_indices":[1,0,0],"split_type":[0,0,0],"sum_hessian":[1E1,1E0,9E0],"tree_param":{"num_deleted":"0","num_feature":"5","num_nodes":"3","size_leaf_vector":"1"}},{"base_weights":[-5.5486505E-4,-8.1481936E-4,-2.0141602E-5],"categories":[],"categories_nodes":[],"categories_segments":[],"categories_sizes":[],"default_left":[0,0,0],"id":59,"left_children":[1,-1,-1],"loss_changes":[1.1412461E-5,0E0,0E0],"parents":[2147483647,0,0],"right_children":[2,-1,-1],"split_conditions":[9.166667E0,-8.1481936E-4,-2.0141602E-5],"split_indices":[1,0,0],"split_type":[0,0,0],"sum_hessian":[1E1,1E0,9E0],"tree_param":{"num_deleted":"0","num_feature":"5","num_nodes":"3","size_leaf_vector":"1"}},{"base_weights":[-4.827326E-4,-6.958008E-4,-2.0141602E-5],"categories":[],"categories_nodes":[],"categories_segments":[],"categories_sizes":[],"default_left":[0,0,0],"id":60,"left_children":[1,-1,-1],"loss_changes":[8.240377E-6,0E0,0E0],"parents":[2147483647,0,0],"right_children":[2,-1,-1],"split_conditions":[9.166667E0,-6.958008E-4,-2.0141602E-5],"split_indices":[1,0,0],"split_type":[0,0,0],"sum_hessian":[1E1,1E0,9E0],"tree_param":{"num_deleted":"0","num_feature":"5","num_nodes":"3","size_leaf_vector":"1"}},{"base_weights":[-4.2169745E-4,-5.950928E-4,-2.0141602E-5],"categories":[],"categories_nodes":[],"categories_segments":[],"categories_sizes":[],"default_left":[0,0,0],"id":61,"left_children":[1,-1,-1],"loss_changes":[5.9586364E-6,0E0,0E0],"parents":[2147483647,0,0],"right_children":[2,-1,-1],"split_conditions":[9.166667E0,-5.950928E-4,-2.0141602E-5],"split_indices":[1,0,0],"split_type":[0,0,0],"sum_hessian":[1E1,1E0,9E0],"tree_param":{"num_deleted":"0","num_feature":"5","num_nodes":"3","size_leaf_vector":"1"}},{"base_weights":[-3.6621094E-4,2.975464E-5,-1.2054443E-3,-5.1269535E-4,4.5776367E-5],"categories":[],"categories_nodes":[],"categories_segments":[],"categories_sizes":[],"default_left":[0,0,0,0,0],"id":62,"left_children":[1,-1,3,-1,-1],"loss_changes":[4.415866E-6,0E0,2.9960647E-6,0E0,0E0],"parents":[2147483647,0,0,2,2],"right_children":[2,-1,4,-1,-1],"split_conditions":[3E0,2.975464E-5,2E1,-5.1269535E-4,4.5776367E-5],"split_indices":[4,0,0,0,0],"split_type":[0,0,0,0,0],"sum_hessian":[1E1,7E0,3E0,2E0,1E0],"tree_param":{"num_deleted":"0","num_feature":"5","num_nodes":"5","size_leaf_vector":"1"}},{"base_weights":[-2.8298117E-4,-4.3029786E-4,-7.324219E-6],"categories":[],"categories_nodes":[],"categories_segments":[],"categories_sizes":[],"default_left":[0,0,0],"id":63,"left_children":[1,-1,-1],"loss_changes":[3.2396817E-6,0E0,0E0],"parents":[2147483647,0,0],"right_children":[2,-1,-1],"split_conditions":[9.166667E0,-4.3029786E-4,-7.324219E-6],"split_indices":[1,0,0],"split_type":[0,0,0],"sum_hessian":[1E1,1E0,9E0],"tree_param":{"num_deleted":"0","num_feature":"5","num_nodes":"3","size_leaf_vector":"1"}},{"base_weights":[-2.4414062E-4,2.975464E-5,-8.69751E-4,-3.7231448E-4,3.6621095E-5],"categories":[],"categories_nodes":[],"categories_segments":[],"categories_sizes":[],"default_left":[0,0,0,0,0],"id":64,"left_children":[1,-1,3,-1,-1],"loss_changes":[2.4489127E-6,0E0,1.6245372E-6,0E0,0E0],"parents":[2147483647,0,0,2,2],"right_children":[2,-1,4,-1,-1],"split_conditions":[3E0,2.975464E-5,2E1,-3.7231448E-4,3.6621095E-5],"split_indices":[4,0,0,0,0],"split_type":[0,0,0,0,0],"sum_hessian":[1E1,7E0,3E0,2E0,1E0],"tree_param":{"num_deleted":"0","num_feature":"5","num_nodes":"5","size_leaf_vector":"1"}},{"base_weights":[-1.8310547E-4,-3.1127932E-4,1.8310548E-6],"categories":[],"categories_nodes":[],"categories_segments":[],"categories_sizes":[],"default_left":[0,0,0],"id":65,"left_children":[1,-1,-1],"loss_changes":[1.7847865E-6,0E0,0E0],"parents":[2147483647,0,0],"right_children":[2,-1,-1],"split_conditions":[9.166667E0,-3.1127932E-4,1.8310548E-6],"split_indices":[1,0,0],"split_type":[0,0,0],"sum_hessian":[1E1,1E0,9E0],"tree_param":{"num_deleted":"0","num_feature":"5","num_nodes":"3","size_leaf_vector":"1"}},{"base_weights":[-1.5536221E-4,2.975464E-5,-1.8768311E-4],"categories":[],"categories_nodes":[],"categories_segments":[],"categories_sizes":[],"default_left":[0,0,0],"id":66,"left_children":[1,-1,-1],"loss_changes":[1.3787384E-6,0E0,0E0],"parents":[2147483647,0,0],"right_children":[2,-1,-1],"split_conditions":[3E0,2.975464E-5,-1.8768311E-4],"split_indices":[4,0,0],"split_type":[0,0,0],"sum_hessian":[1E1,7E0,3E0],"tree_param":{"num_deleted":"0","num_feature":"5","num_nodes":"3","size_leaf_vector":"1"}},{"base_weights":[-1.0542436E-4,-2.3803712E-4,1.2817383E-5],"categories":[],"categories_nodes":[],"categories_segments":[],"categories_sizes":[],"default_left":[0,0,0],"id":67,"left_children":[1,-1,-1],"loss_changes":[1.1551448E-6,0E0,0E0],"parents":[2147483647,0,0],"right_children":[2,-1,-1],"split_conditions":[9.166667E0,-2.3803712E-4,1.2817383E-5],"split_indices":[1,0,0],"split_type":[0,0,0],"sum_hessian":[1E1,1E0,9E0],"tree_param":{"num_deleted":"0","num_feature":"5","num_nodes":"3","size_leaf_vector":"1"}},{"base_weights":[-8.322976E-5],"categories":[],"categories_nodes":[],"categories_segments":[],"categories_sizes":[],"default_left":[0],"id":68,"left_children":[-1],"loss_changes":[0E0],"parents":[2147483647],"right_children":[-1],"split_conditions":[-2.496893E-5],"split_indices":[0],"split_type":[0],"sum_hessian":[1E1],"tree_param":{"num_deleted":"0","num_feature":"5","num_nodes":"1","size_leaf_vector":"1"}},{"base_weights":[-8.322976E-5],"categories":[],"categories_nodes":[],"categories_segments":[],"categories_sizes":[],"default_left":[0],"id":69,"left_children":[-1],"loss_changes":[0E0],"parents":[2147483647],"right_children":[-1],"split_conditions":[-2.496893E-5],"split_indices":[0],"split_type":[0],"sum_hessian":[1E1],"tree_param":{"num_deleted":"0","num_feature":"5","num_nodes":"1","size_leaf_vector":"1"}},{"base_weights":[-8.322976E-5],"categories":[],"categories_nodes":[],"categories_segments":[],"categories_sizes":[],"default_left":[0],"id":70,"left_children":[-1],"loss_changes":[0E0],"parents":[2147483647],"right_children":[-1],"split_conditions":[-2.496893E-5],"split_indices":[0],"split_type":[0],"sum_hessian":[1E1],"tree_param":{"num_deleted":"0","num_feature":"5","num_nodes":"1","size_leaf_vector":"1"}},{"base_weights":[-8.322976E-5],"categories":[],"categories_nodes":[],"categories_segments":[],"categories_sizes":[],"default_left":[0],"id":71,"left_children":[-1],"loss_changes":[0E0],"parents":[2147483647],"right_children":[-1],"split_conditions":[-2.496893E-5],"split_indices":[0],"split_type":[0],"sum_hessian":[1E1],"tree_param":{"num_deleted":"0","num_feature":"5","num_nodes":"1","size_leaf_vector":"1"}},{"base_weights":[-8.322976E-5],"categories":[],"categories_nodes":[],"categories_segments":[],"categories_sizes":[],"default_left":[0],"id":72,"left_children":[-1],"loss_changes":[0E0],"parents":[2147483647],"right_children":[-1],"split_conditions":[-2.496893E-5],"split_indices":[0],"split_type":[0],"sum_hessian":[1E1],"tree_param":{"num_deleted":"0","num_feature":"5","num_nodes":"1","size_leaf_vector":"1"}},{"base_weights":[-8.322976E-5],"categories":[],"categories_nodes":[],"categories_segments":[],"categories_sizes":[],"default_left":[0],"id":73,"left_children":[-1],"loss_changes":[0E0],"parents":[2147483647],"right_children":[-1],"split_conditions":[-2.496893E-5],"split_indices":[0],"split_type":[0],"sum_hessian":[1E1],"tree_param":{"num_deleted":"0","num_feature":"5","num_nodes":"1","size_leaf_vector":"1"}},{"base_weights":[-8.322976E-5],"categories":[],"categories_nodes":[],"categories_segments":[],"categories_sizes":[],"default_left":[0],"id":74,"left_children":[-1],"loss_changes":[0E0],"parents":[2147483647],"right_children":[-1],"split_conditions":[-2.496893E-5],"split_indices":[0],"split_type":[0],"sum_hessian":[1E1],"tree_param":{"num_deleted":"0","num_feature":"5","num_nodes":"1","size_leaf_vector":"1"}},{"base_weights":[-8.322976E-5],"categories":[],"categories_nodes":[],"categories_segments":[],"categories_sizes":[],"default_left":[0],"id":75,"left_children":[-1],"loss_changes":[0E0],"parents":[2147483647],"right_children":[-1],"split_conditions":[-2.496893E-5],"split_indices":[0],"split_type":[0],"sum_hessian":[1E1],"tree_param":{"num_deleted":"0","num_feature":"5","num_nodes":"1","size_leaf_vector":"1"}},{"base_weights":[-8.322976E-5],"categories":[],"categories_nodes":[],"categories_segments":[],"categories_sizes":[],"default_left":[0],"id":76,"left_children":[-1],"loss_changes":[0E0],"parents":[2147483647],"right_children":[-1],"split_conditions":[-2.496893E-5],"split_indices":[0],"split_type":[0],"sum_hessian":[1E1],"tree_param":{"num_deleted":"0","num_feature":"5","num_nodes":"1","size_leaf_vector":"1"}},{"base_weights":[-8.322976E-5],"categories":[],"categories_nodes":[],"categories_segments":[],"categories_sizes":[],"default_left":[0],"id":77,"left_children":[-1],"loss_changes":[0E0],"parents":[2147483647],"right_children":[-1],"split_conditions":[-2.496893E-5],"split_indices":[0],"split_type":[0],"sum_hessian":[1E1],"tree_param":{"num_deleted":"0","num_feature":"5","num_nodes":"1","size_leaf_vector":"1"}},{"base_weights":[-8.322976E-5],"categories":[],"categories_nodes":[],"categories_segments":[],"categories_sizes":[],"default_left":[0],"id":78,"left_children":[-1],"loss_changes":[0E0],"parents":[2147483647],"right_children":[-1],"split_conditions":[-2.496893E-5],"split_indices":[0],"split_type":[0],"sum_hessian":[1E1],"tree_param":{"num_deleted":"0","num_feature":"5","num_nodes":"1","size_leaf_vector":"1"}},{"base_weights":[-8.322976E-5],"categories":[],"categories_nodes":[],"categories_segments":[],"categories_sizes":[],"default_left":[0],"id":79,"left_children":[-1],"loss_changes":[0E0],"parents":[2147483647],"right_children":[-1],"split_conditions":[-2.496893E-5],"split_indices":[0],"split_type":[0],"sum_hessian":[1E1],"tree_param":{"num_deleted":"0","num_feature":"5","num_nodes":"1","size_leaf_vector":"1"}},{"base_weights":[-8.322976E-5],"categories":[],"categories_nodes":[],"categories_segments":[],"categories_sizes":[],"default_left":[0],"id":80,"left_children":[-1],"loss_changes":[0E0],"parents":[2147483647],"right_children":[-1],"split_conditions":[-2.496893E-5],"split_indices":[0],"split_type":[0],"sum_hessian":[1E1],"tree_param":{"num_deleted":"0","num_feature":"5","num_nodes":"1","size_leaf_vector":"1"}},{"base_weights":[-8.322976E-5],"categories":[],"categories_nodes":[],"categories_segments":[],"categories_sizes":[],"default_left":[0],"id":81,"left_children":[-1],"loss_changes":[0E0],"parents":[2147483647],"right_children":[-1],"split_conditions":[-2.496893E-5],"split_indices":[0],"split_type":[0],"sum_hessian":[1E1],"tree_param":{"num_deleted":"0","num_feature":"5","num_nodes":"1","size_leaf_vector":"1"}},{"base_weights":[-8.322976E-5],"categories":[],"categories_nodes":[],"categories_segments":[],"categories_sizes":[],"default_left":[0],"id":82,"left_children":[-1],"loss_changes":[0E0],"parents":[2147483647],"right_children":[-1],"split_conditions":[-2.496893E-5],"split_indices":[0],"split_type":[0],"sum_hessian":[1E1],"tree_param":{"num_deleted":"0","num_feature":"5","num_nodes":"1","size_leaf_vector":"1"}},{"base_weights":[-8.322976E-5],"categories":[],"categories_nodes":[],"categories_segments":[],"categories_sizes":[],"default_left":[0],"id":83,"left_children":[-1],"loss_changes":[0E0],"parents":[2147483647],"right_children":[-1],"split_conditions":[-2.496893E-5],"split_indices":[0],"split_type":[0],"sum_hessian":[1E1],"tree_param":{"num_deleted":"0","num_feature":"5","num_nodes":"1","size_leaf_vector":"1"}},{"base_weights":[-8.322976E-5],"categories":[],"categories_nodes":[],"categories_segments":[],"categories_sizes":[],"default_left":[0],"id":84,"left_children":[-1],"loss_changes":[0E0],"parents":[2147483647],"right_children":[-1],"split_conditions":[-2.496893E-5],"split_indices":[0],"split_type":[0],"sum_hessian":[1E1],"tree_param":{"num_deleted":"0","num_feature":"5","num_nodes":"1","size_leaf_vector":"1"}},{"base_weights":[-8.322976E-5],"categories":[],"categories_nodes":[],"categories_segments":[],"categories_sizes":[],"default_left":[0],"id":85,"left_children":[-1],"loss_changes":[0E0],"parents":[2147483647],"right_children":[-1],"split_conditions":[-2.496893E-5],"split_indices":[0],"split_type":[0],"sum_hessian":[1E1],"tree_param":{"num_deleted":"0","num_feature":"5","num_nodes":"1","size_leaf_vector":"1"}},{"base_weights":[-8.322976E-5],"categories":[],"categories_nodes":[],"categories_segments":[],"categories_sizes":[],"default_left":[0],"id":86,"left_children":[-1],"loss_changes":[0E0],"parents":[2147483647],"right_children":[-1],"split_conditions":[-2.496893E-5],"split_indices":[0],"split_type":[0],"sum_hessian":[1E1],"tree_param":{"num_deleted":"0","num_feature":"5","num_nodes":"1","size_leaf_vector":"1"}},{"base_weights":[-8.322976E-5],"categories":[],"categories_nodes":[],"categories_segments":[],"categories_sizes":[],"default_left":[0],"id":87,"left_children":[-1],"loss_changes":[0E0],"parents":[2147483647],"right_children":[-1],"split_conditions":[-2.496893E-5],"split_indices":[0],"split_type":[0],"sum_hessian":[1E1],"tree_param":{"num_deleted":"0","num_feature":"5","num_nodes":"1","size_leaf_vector":"1"}},{"base_weights":[-8.322976E-5],"categories":[],"categories_nodes":[],"categories_segments":[],"categories_sizes":[],"default_left":[0],"id":88,"left_children":[-1],"loss_changes":[0E0],"parents":[2147483647],"right_children":[-1],"split_conditions":[-2.496893E-5],"split_indices":[0],"split_type":[0],"sum_hessian":[1E1],"tree_param":{"num_deleted":"0","num_feature":"5","num_nodes":"1","size_leaf_vector":"1"}},{"base_weights":[-8.322976E-5],"categories":[],"categories_nodes":[],"categories_segments":[],"categories_sizes":[],"default_left":[0],"id":89,"left_children":[-1],"loss_changes":[0E0],"parents":[2147483647],"right_children":[-1],"split_conditions":[-2.496893E-5],"split_indices":[0],"split_type":[0],"sum_hessian":[1E1],"tree_param":{"num_deleted":"0","num_feature":"5","num_nodes":"1","size_leaf_vector":"1"}},{"base_weights":[-8.322976E-5],"categories":[],"categories_nodes":[],"categories_segments":[],"categories_sizes":[],"default_left":[0],"id":90,"left_children":[-1],"loss_changes":[0E0],"parents":[2147483647],"right_children":[-1],"split_conditions":[-2.496893E-5],"split_indices":[0],"split_type":[0],"sum_hessian":[1E1],"tree_param":{"num_deleted":"0","num_feature":"5","num_nodes":"1","size_leaf_vector":"1"}},{"base_weights":[-8.322976E-5],"categories":[],"categories_nodes":[],"categories_segments":[],"categories_sizes":[],"default_left":[0],"id":91,"left_children":[-1],"loss_changes":[0E0],"parents":[2147483647],"right_children":[-1],"split_conditions":[-2.496893E-5],"split_indices":[0],"split_type":[0],"sum_hessian":[1E1],"tree_param":{"num_deleted":"0","num_feature":"5","num_nodes":"1","size_leaf_vector":"1"}},{"base_weights":[-8.322976E-5],"categories":[],"categories_nodes":[],"categories_segments":[],"categories_sizes":[],"default_left":[0],"id":92,"left_children":[-1],"loss_changes":[0E0],"parents":[2147483647],"right_children":[-1],"split_conditions":[-2.496893E-5],"split_indices":[0],"split_type":[0],"sum_hessian":[1E1],"tree_param":{"num_deleted":"0","num_feature":"5","num_nodes":"1","size_leaf_vector":"1"}},{"base_weights":[-8.322976E-5],"categories":[],"categories_nodes":[],"categories_segments":[],"categories_sizes":[],"default_left":[0],"id":93,"left_children":[-1],"loss_changes":[0E0],"parents":[2147483647],"right_children":[-1],"split_conditions":[-2.496893E-5],"split_indices":[0],"split_type":[0],"sum_hessian":[1E1],"tree_param":{"num_deleted":"0","num_feature":"5","num_nodes":"1","size_leaf_vector":"1"}},{"base_weights":[-8.322976E-5],"categories":[],"categories_nodes":[],"categories_segments":[],"categories_sizes":[],"default_left":[0],"id":94,"left_children":[-1],"loss_changes":[0E0],"parents":[2147483647],"right_children":[-1],"split_conditions":[-2.496893E-5],"split_indices":[0],"split_type":[0],"sum_hessian":[1E1],"tree_param":{"num_deleted":"0","num_feature":"5","num_nodes":"1","size_leaf_vector":"1"}},{"base_weights":[-8.322976E-5],"categories":[],"categories_nodes":[],"categories_segments":[],"categories_sizes":[],"default_left":[0],"id":95,"left_children":[-1],"loss_changes":[0E0],"parents":[2147483647],"right_children":[-1],"split_conditions":[-2.496893E-5],"split_indices":[0],"split_type":[0],"sum_hessian":[1E1],"tree_param":{"num_deleted":"0","num_feature":"5","num_nodes":"1","size_leaf_vector":"1"}},{"base_weights":[-8.322976E-5],"categories":[],"categories_nodes":[],"categories_segments":[],"categories_sizes":[],"default_left":[0],"id":96,"left_children":[-1],"loss_changes":[0E0],"parents":[2147483647],"right_children":[-1],"split_conditions":[-2.496893E-5],"split_indices":[0],"split_type":[0],"sum_hessian":[1E1],"tree_param":{"num_deleted":"0","num_feature":"5","num_nodes":"1","size_leaf_vector":"1"}},{"base_weights":[-8.322976E-5],"categories":[],"categories_nodes":[],"categories_segments":[],"categories_sizes":[],"default_left":[0],"id":97,"left_children":[-1],"loss_changes":[0E0],"parents":[2147483647],"right_children":[-1],"split_conditions":[-2.496893E-5],"split_indices":[0],"split_type":[0],"sum_hessian":[1E1],"tree_param":{"num_deleted":"0","num_feature":"5","num_nodes":"1","size_leaf_vector":"1"}},{"base_weights":[-8.322976E-5],"categories":[],"categories_nodes":[],"categories_segments":[],"categories_sizes":[],"default_left":[0],"id":98,"left_children":[-1],"loss_changes":[0E0],"parents":[2147483647],"right_children":[-1],"split_conditions":[-2.496893E-5],"split_indices":[0],"split_type":[0],"sum_hessian":[1E1],"tree_param":{"num_deleted":"0","num_feature":"5","num_nodes":"1","size_leaf_vector":"1"}},{"base_weights":[-8.322976E-5],"categories":[],"categories_nodes":[],"categories_segments":[],"categories_sizes":[],"default_left":[0],"id":99,"left_children":[-1],"loss_changes":[0E0],"parents":[2147483647],"right_children":[-1],"split_conditions":[-2.496893E-5],"split_indices":[0],"split_type":[0],"sum_hessian":[1E1],"tree_param":{"num_deleted":"0","num_feature":"5","num_nodes":"1","size_leaf_vector":"1"}}]},"name":"gbtree"},"learner_model_param":{"base_score":"[8.3878E2]","boost_from_average":"1","num_class":"0","num_feature":"5","num_target":"1"},"objective":{"name":"reg:squarederror","reg_loss_param":{"scale_pos_weight":"1"}}},"version":[3,2,0]}