{"learner":{"attributes":{"scikit_learn":"{\"_estimator_type\": \"regressor\"}"},"feature_names":["upi_velocity","gst_timeliness","pat_margin","asset_liability_ratio","sector_encoded"],"feature_types":["int","float","float","float","int"],"gradient_booster":{"model":{"cats":{"enc":[],"feature_segments":[],"sorted_idx":[]},"gbtree_model_param":{"num_parallel_tree":"1","num_trees":"100"},"iteration_indptr":[0,1,2,3,4,5,6,7,8,9,10,11,12,13,14,15,16,17,18,19,20,21,22,23,24,25,26,27,28,29,30,31,32,33,34,35,36,37,38,39,40,41,42,43,44,45,46,47,48,49,50,51,52,53,54,55,56,57,58,59,60,61,62,63,64,65,66,67,68,69,70,71,72,73,74,75,76,77,78,79,80,81,82,83,84,85,86,87,88,89,90,91,92,93,94,95,96,97,98,99,100],"tree_info":[0,0,0,0,0,0,0,0,0,0,0,0,0,0,0,0,0,0,0,0,0,0,0,0,0,0,0,0,0,0,0,0,0,0,0,0,0,0,0,0,0,0,0,0,0,0,0,0,0,0,0,0,0,0,0,0,0,0,0,0,0,0,0,0,0,0,0,0,0,0,0,0,0,0,0,0,0,0,0,0,0,0,0,0,0,0,0,0,0,0,0,0,0,0,0,0,0,0,0,0],"trees":[{"base_weights":[2.2194603E-5,-1.1156796E1,7.96915E0],"categories":[],"categories_nodes":[],"categories_segments":[],"categories_sizes":[],"default_left":[0,0,0],"id":0,"left_children":[1,-1,-1],"loss_changes":[1.1854688E4,0E0,0E0],"parents":[2147483647,0,0],"right_children":[2,-1,-1],"split_conditions":[9.47E0,-1.1156796E1,7.96915E0],"split_indices":[2,0,0],"split_type":[0,0,0],"sum_hessian":[1E1,4E0,6E0],"tree_param":{"num_deleted":"0","num_feature":"5","num_nodes":"3","size_leaf_vector":"1"}},{"base_weights":[-2.8978384E-1,-8.479164E0,5.9199333E0],"categories":[],"categories_nodes":[],"categories_segments":[],"categories_sizes":[],"default_left":[0,0,0],"id":1,"left_children":[1,-1,-1],"loss_changes":[6.71908E3,0E0,0E0],"parents":[2147483647,0,0],"right_children":[2,-1,-1],"split_conditions":[9.47E0,-8.479164E0,5.9199333E0],"split_indices":[2,0,0],"split_type":[0,0,0],"sum_hessian":[1E1,4E0,6E0],"tree_param":{"num_deleted":"0","num_feature":"5","num_nodes":"3","size_leaf_vector":"1"}},{"base_weights":[-4.3549138E-1,-2.148053E1,1.4658892E1,-7.910132E0,-2.8301332E0,1.0136353E0,4.792734E0],"categories":[],"categories_nodes":[],"categories_segments":[],"categories_sizes":[],"default_left":[0,0,0,0,0,0,0],"id":2,"left_children":[1,3,5,-1,-1,-1,-1],"loss_changes":[3.8091614E3,4.559546E1,5.0003784E1,0E0,0E0,0E0,0E0],"parents":[2147483647,0,0,1,1,2,2],"right_children":[2,4,6,-1,-1,-1,-1],"split_conditions":[9.47E0,2.3E1,1.6E1,-7.910132E0,-2.8301332E0,1.0136353E0,4.792734E0],"split_indices":[2,0,0,0,0,0,0],"split_type":[0,0,0,0,0,0,0],"sum_hessian":[1E1,4E0,6E0,2E0,2E0,1E0,5E0],"tree_param":{"num_deleted":"0","num_feature":"5","num_nodes":"7","size_leaf_vector":"1"}},{"base_weights":[-7.53368E-1,-1.7184412E1,1.1090715E1,-1.4130799E0,-5.7376146E0,8.6159366E-1,3.5945528E0],"categories":[],"categories_nodes":[],"categories_segments":[],"categories_sizes":[],"default_left":[0,0,0,0,0,0,0],"id":3,"left_children":[1,3,5,-1,-1,-1,-1],"loss_changes":[2.3313047E3,3.0973999E1,1.6855896E1,0E0,0E0,0E0,0E0],"parents":[2147483647,0,0,1,1,2,2],"right_children":[2,4,6,-1,-1,-1,-1],"split_conditions":[9.47E0,1.44E0,1.6E1,-1.4130799E0,-5.7376146E0,8.6159366E-1,3.5945528E0],"split_indices":[2,3,0,0,0,0,0],"split_type":[0,0,0,0,0,0,0],"sum_hessian":[1E1,4E0,6E0,1E0,3E0,1E0,5E0],"tree_param":{"num_deleted":"0","num_feature":"5","num_nodes":"7","size_leaf_vector":"1"}},{"base_weights":[-7.7231115E-1,-1.34592285E1,8.400103E0,-5.1805787E0,-1.5490357E0,7.323578E-1,2.695917E0],"categories":[],"categories_nodes":[],"categories_segments":[],"categories_sizes":[],"default_left":[0,0,0,0,0,0,0],"id":4,"left_children":[1,3,5,-1,-1,-1,-1],"loss_changes":[1.3931251E3,6.884259E1,2.5178833E0,0E0,0E0,0E0,0E0],"parents":[2147483647,0,0,1,1,2,2],"right_children":[2,4,6,-1,-1,-1,-1],"split_conditions":[9.47E0,2.3E1,1.6E1,-5.1805787E0,-1.5490357E0,7.323578E-1,2.695917E0],"split_indices":[2,0,0,0,0,0,0],"split_type":[0,0,0,0,0,0,0],"sum_hessian":[1E1,4E0,6E0,2E0,2E0,1E0,5E0],"tree_param":{"num_deleted":"0","num_feature":"5","num_nodes":"7","size_leaf_vector":"1"}},{"base_weights":[-8.4074265E-1,-1.0767383E1,1.9109462E0,-4.1444583E0,-1.2392334E0],"categories":[],"categories_nodes":[],"categories_segments":[],"categories_sizes":[],"default_left":[0,0,0,0,0],"id":5,"left_children":[1,3,-1,-1,-1],"loss_changes":[8.559296E2,4.405841E1,0E0,0E0,0E0],"parents":[2147483647,0,0,1,1],"right_children":[2,4,-1,-1,-1],"split_conditions":[9.47E0,2.3E1,1.9109462E0,-4.1444583E0,-1.2392334E0],"split_indices":[2,0,0,0,0],"split_type":[0,0,0,0,0],"sum_hessian":[1E1,4E0,6E0,2E0,2E0],"tree_param":{"num_deleted":"0","num_feature":"5","num_nodes":"5","size_leaf_vector":"1"}},{"base_weights":[-9.042192E-1,-8.613892E0,4.731864E0,-3.3155642E0,-9.913819E-1,3.358612E-1,1.5441988E0],"categories":[],"categories_nodes":[],"categories_segments":[],"categories_sizes":[],"default_left":[0,0,0,0,0,0,0],"id":6,"left_children":[1,3,5,-1,-1,-1,-1],"loss_changes":[5.187357E2,2.8197723E1,4.742935E0,0E0,0E0,0E0,0E0],"parents":[2147483647,0,0,1,1,2,2],"right_children":[2,4,6,-1,-1,-1,-1],"split_conditions":[9.47E0,2.3E1,1.6E1,-3.3155642E0,-9.913819E-1,3.358612E-1,1.5441988E0],"split_indices":[2,0,0,0,0,0,0],"split_type":[0,0,0,0,0,0,0],"sum_hessian":[1E1,4E0,6E0,2E0,2E0,1E0,5E0],"tree_param":{"num_deleted":"0","num_feature":"5","num_nodes":"7","size_leaf_vector":"1"}},{"base_weights":[-8.5357666E-1,-6.8911133E0,3.580889E0,-2.6524537E0,-7.9310304E-1,3.8855999E0,2.6289368E-1,2.8547975E-1,1.2846241E0],"categories":[],"categories_nodes":[],"categories_segments":[],"categories_sizes":[],"default_left":[0,0,0,0,0,0,0,0,0],"id":7,"left_children":[1,3,5,-1,-1,7,-1,-1,-1],"loss_changes":[3.1918204E2,1.804689E1,2.3637924E0,0E0,0E0,2.9048157E0,0E0,0E0,0E0],"parents":[2147483647,0,0,1,1,2,2,5,5],"right_children":[2,4,6,-1,-1,8,-1,-1,-1],"split_conditions":[9.47E0,2.3E1,2.2E1,-2.6524537E0,-7.9310304E-1,1.6E1,2.6289368E-1,2.8547975E-1,1.2846241E0],"split_indices":[2,0,0,0,0,0,0,0,0],"split_type":[0,0,0,0,0,0,0,0,0],"sum_hessian":[1E1,4E0,6E0,2E0,2E0,5E0,1E0,1E0,4E0],"tree_param":{"num_deleted":"0","num_feature":"5","num_nodes":"9","size_leaf_vector":"1"}},{"base_weights":[-7.440907E-1,-5.512891E0,2.7684937E0,-2.4564698E0,-8.3909917E-1,2.9816182E0,2.2346193E-1,2.4266054E-1,9.763184E-1],"categories":[],"categories_nodes":[],"categories_segments":[],"categories_sizes":[],"default_left":[0,0,0,0,0,0,0,0,0],"id":8,"left_children":[1,3,5,-1,-1,7,-1,-1,-1],"loss_changes":[1.9952133E2,1.3427261E1,7.980614E-1,0E0,0E0,9.236717E-1,0E0,0E0,0E0],"parents":[2147483647,0,0,1,1,2,2,5,5],"right_children":[2,4,6,-1,-1,8,-1,-1,-1],"split_conditions":[9.47E0,1.8E1,2.2E1,-2.4564698E0,-8.3909917E-1,1.6E1,2.2346193E-1,2.4266054E-1,9.763184E-1],"split_indices":[2,0,0,0,0,0,0,0,0],"split_type":[0,0,0,0,0,0,0,0,0],"sum_hessian":[1E1,4E0,6E0,1E0,3E0,5E0,1E0,1E0,4E0],"tree_param":{"num_deleted":"0","num_feature":"5","num_nodes":"9","size_leaf_vector":"1"}},{"base_weights":[-6.893255E-1,-4.5181274E0,2.1440082E0,-2.0879974E0,-6.502991E-1,2.2902935E0,1.8994446E-1,2.0625916E-1,7.4200195E-1],"categories":[],"categories_nodes":[],"categories_segments":[],"categories_sizes":[],"default_left":[0,0,0,0,0,0,0,0,0],"id":9,"left_children":[1,3,5,-1,-1,7,-1,-1,-1],"loss_changes":[1.290179E2,1.3610649E1,9.7019196E-2,0E0,0E0,5.9785843E-2,0E0,0E0,0E0],"parents":[2147483647,0,0,1,1,2,2,5,5],"right_children":[2,4,6,-1,-1,8,-1,-1,-1],"split_conditions":[9.47E0,1.8E1,2.2E1,-2.0879974E0,-6.502991E-1,1.6E1,1.8994446E-1,2.0625916E-1,7.4200195E-1],"split_indices":[2,0,0,0,0,0,0,0,0],"split_type":[0,0,0,0,0,0,0,0,0],"sum_hessian":[1E1,4E0,6E0,1E0,3E0,5E0,1E0,1E0,4E0],"tree_param":{"num_deleted":"0","num_feature":"5","num_nodes":"9","size_leaf_vector":"1"}},{"base_weights":[-6.279852E-1,-3.7103393E0,4.9902257E-1,-1.7747957E0,-5.039795E-1],"categories":[],"categories_nodes":[],"categories_segments":[],"categories_sizes":[],"default_left":[0,0,0,0,0],"id":10,"left_children":[1,3,-1,-1,-1],"loss_changes":[8.386356E1,1.2453346E1,0E0,0E0,0E0],"parents":[2147483647,0,0,1,1],"right_children":[2,4,-1,-1,-1],"split_conditions":[9.47E0,1.8E1,4.9902257E-1,-1.7747957E0,-5.039795E-1],"split_indices":[2,0,0,0,0],"split_type":[0,0,0,0,0],"sum_hessian":[1E1,4E0,6E0,1E0,3E0],"tree_param":{"num_deleted":"0","num_feature":"5","num_nodes":"5","size_leaf_vector":"1"}},{"base_weights":[-6.013905E-1,-3.0530028E0,1.2356741E0,-1.2906922E0,-2.3580933E-1,1.345398E0,8.659974E-2,1.0046998E-1,4.441553E-1],"categories":[],"categories_nodes":[],"categories_segments":[],"categories_sizes":[],"default_left":[0,0,0,0,0,0,0,0,0],"id":11,"left_children":[1,3,5,-1,-1,7,-1,-1,-1],"loss_changes":[5.331399E1,1.0778942E1,3.3899498E-1,0E0,0E0,3.2340336E-1,0E0,0E0,0E0],"parents":[2147483647,0,0,1,1,2,2,5,5],"right_children":[2,4,6,-1,-1,8,-1,-1,-1],"split_conditions":[9.47E0,2.3E1,2.2E1,-1.2906922E0,-2.3580933E-1,1.6E1,8.659974E-2,1.0046998E-1,4.441553E-1],"split_indices":[2,0,0,0,0,0,0,0,0],"split_type":[0,0,0,0,0,0,0,0,0],"sum_hessian":[1E1,4E0,6E0,2E0,2E0,5E0,1E0,1E0,4E0],"tree_param":{"num_deleted":"0","num_feature":"5","num_nodes":"9","size_leaf_vector":"1"}},{"base_weights":[-5.0236374E-1,-1.3149719E0,3.2404786E-1,-2.5841677E-1,9.5514786E-1,1.0325521E0,7.36084E-2,8.5400395E-2,3.375586E-1],"categories":[],"categories_nodes":[],"categories_segments":[],"categories_sizes":[],"default_left":[0,0,0,0,0,0,0,0,0],"id":12,"left_children":[1,-1,3,-1,5,7,-1,-1,-1],"loss_changes":[3.6699593E1,0E0,8.304049E0,0E0,1.3123417E-1,9.54113E-2,0E0,0E0,0E0],"parents":[2147483647,0,0,2,2,4,4,5,5],"right_children":[2,-1,4,-1,6,8,-1,-1,-1],"split_conditions":[9E0,-1.3149719E0,6.03E0,-2.5841677E-1,2.2E1,1.6E1,7.36084E-2,8.5400395E-2,3.375586E-1],"split_indices":[1,0,2,0,0,0,0,0,0],"split_type":[0,0,0,0,0,0,0,0,0],"sum_hessian":[1E1,1E0,9E0,3E0,6E0,5E0,1E0,1E0,4E0],"tree_param":{"num_deleted":"0","num_feature":"5","num_nodes":"9","size_leaf_vector":"1"}},{"base_weights":[-4.4955167E-1,-1.1177216E0,2.5064087E-1,-2.0027162E-1,7.395281E-1,2.3797913E-1,6.2567145E-2],"categories":[],"categories_nodes":[],"categories_segments":[],"categories_sizes":[],"default_left":[0,0,0,0,0,0,0],"id":13,"left_children":[1,-1,3,-1,5,-1,-1],"loss_changes":[2.6167398E1,0E0,4.9827137E0,0E0,3.4283876E-2,0E0,0E0],"parents":[2147483647,0,0,2,2,4,4],"right_children":[2,-1,4,-1,6,-1,-1],"split_conditions":[9E0,-1.1177216E0,6.03E0,-2.0027162E-1,2.2E1,2.3797913E-1,6.2567145E-2],"split_indices":[1,0,2,0,0,0,0],"split_type":[0,0,0,0,0,0,0],"sum_hessian":[1E1,1E0,9E0,3E0,6E0,5E0,1E0],"tree_param":{"num_deleted":"0","num_feature":"5","num_nodes":"7","size_leaf_vector":"1"}},{"base_weights":[-4.071822E-1,-9.500611E-1,1.8547364E-1,-5.1737976E-1,5.606079E-1,-1.847168E-1,-3.3352662E-2,3.6895752E-2,6.130473E-1,1.9942383E-1,5.3182986E-2],"categories":[],"categories_nodes":[],"categories_segments":[],"categories_sizes":[],"default_left":[0,0,0,0,0,0,0,0,0,0,0],"id":14,"left_children":[1,-1,3,5,7,-1,-1,-1,9,-1,-1],"loss_changes":[1.8578367E1,0E0,2.926691E0,9.133589E-2,8.524418E-2,0E0,0E0,0E0,1.7329216E-2,0E0,0E0],"parents":[2147483647,0,0,2,2,3,3,4,4,8,8],"right_children":[2,-1,4,6,8,-1,-1,-1,10,-1,-1],"split_conditions":[9E0,-9.500611E-1,6.03E0,2.5E1,1.6E1,-1.847168E-1,-3.3352662E-2,3.6895752E-2,2.2E1,1.9942383E-1,5.3182986E-2],"split_indices":[1,0,2,0,0,0,0,0,0,0,0],"split_type":[0,0,0,0,0,0,0,0,0,0,0],"sum_hessian":[1E1,1E0,9E0,3E0,6E0,2E0,1E0,1E0,5E0,4E0,1E0],"tree_param":{"num_deleted":"0","num_feature":"5","num_nodes":"11","size_leaf_vector":"1"}},{"base_weights":[-3.6490145E-1,-8.075501E-1,1.369751E-1,-4.1670227E-1,4.337943E-1,-1.4777832E-1,-2.8353883E-2,3.135681E-2,1.4137574E-1],"categories":[],"categories_nodes":[],"categories_segments":[],"categories_sizes":[],"default_left":[0,0,0,0,0,0,0,0,0],"id":15,"left_children":[1,-1,3,5,7,-1,-1,-1,-1],"loss_changes":[1.3214873E1,0E0,1.8241837E0,5.124998E-2,3.7080646E-2,0E0,0E0,0E0,0E0],"parents":[2147483647,0,0,2,2,3,3,4,4],"right_children":[2,-1,4,6,8,-1,-1,-1,-1],"split_conditions":[9E0,-8.075501E-1,6.03E0,2.5E1,1.6E1,-1.4777832E-1,-2.8353883E-2,3.135681E-2,1.4137574E-1],"split_indices":[1,0,2,0,0,0,0,0,0],"split_type":[0,0,0,0,0,0,0,0,0],"sum_hessian":[1E1,1E0,9E0,3E0,6E0,2E0,1E0,1E0,5E0],"tree_param":{"num_deleted":"0","num_feature":"5","num_nodes":"9","size_leaf_vector":"1"}},{"base_weights":[-3.2914594E-1,-6.864166E-1,9.555054E-2,-3.3572388E-1,3.2834297E-1,-1.182251E-1,-2.409668E-2,3.5639444E-1,2.4005128E-2,2.6651002E-2,1.17641605E-1],"categories":[],"categories_nodes":[],"categories_segments":[],"categories_sizes":[],"default_left":[0,0,0,0,0,0,0,0,0,0,0],"id":16,"left_children":[1,-1,3,5,7,-1,-1,9,-1,-1,-1],"loss_changes":[9.369987E0,0E0,1.1142068E0,2.7967036E-2,2.0243704E-2,0E0,0E0,2.2545516E-2,0E0,0E0,0E0],"parents":[2147483647,0,0,2,2,3,3,4,4,7,7],"right_children":[2,-1,4,6,8,-1,-1,10,-1,-1,-1],"split_conditions":[9E0,-6.864166E-1,6.03E0,2.5E1,2.2E1,-1.182251E-1,-2.409668E-2,1.6E1,2.4005128E-2,2.6651002E-2,1.17641605E-1],"split_indices":[1,0,2,0,0,0,0,0,0,0,0],"split_type":[0,0,0,0,0,0,0,0,0,0,0],"sum_hessian":[1E1,1E0,9E0,3E0,6E0,2E0,1E0,5E0,1E0,1E0,4E0],"tree_param":{"num_deleted":"0","num_feature":"5","num_nodes":"11","size_leaf_vector":"1"}},{"base_weights":[-2.9043302E-1,-5.8345646E-1,6.949463E-2,-2.705841E-1,2.5389752E-1,-9.4580084E-2,-2.0480348E-2,2.7353922E-1,2.0407105E-2,2.2650147E-2,8.941407E-2],"categories":[],"categories_nodes":[],"categories_segments":[],"categories_sizes":[],"default_left":[0,0,0,0,0,0,0,0,0,0,0],"id":17,"left_children":[1,-1,3,5,7,-1,-1,9,-1,-1,-1],"loss_changes":[6.6853504E0,0E0,6.958157E-1,1.4637679E-2,6.9490373E-3,0E0,0E0,6.6180527E-3,0E0,0E0,0E0],"parents":[2147483647,0,0,2,2,3,3,4,4,7,7],"right_children":[2,-1,4,6,8,-1,-1,10,-1,-1,-1],"split_conditions":[9E0,-5.8345646E-1,6.03E0,2.5E1,2.2E1,-9.4580084E-2,-2.0480348E-2,1.6E1,2.0407105E-2,2.2650147E-2,8.941407E-2],"split_indices":[1,0,2,0,0,0,0,0,0,0,0],"split_type":[0,0,0,0,0,0,0,0,0,0,0],"sum_hessian":[1E1,1E0,9E0,3E0,6E0,2E0,1E0,5E0,1E0,1E0,4E0],"tree_param":{"num_deleted":"0","num_feature":"5","num_nodes":"11","size_leaf_vector":"1"}},{"base_weights":[-2.547552E-1,-4.959412E-1,5.039673E-2,-2.181549E-1,1.9665527E-1,-7.5659186E-2,-1.7404176E-2,6.304627E-2,1.7349243E-2],"categories":[],"categories_nodes":[],"categories_segments":[],"categories_sizes":[],"default_left":[0,0,0,0,0,0,0,0,0],"id":18,"left_children":[1,-1,3,5,7,-1,-1,-1,-1],"loss_changes":[4.777221E0,0E0,4.35681E-1,7.175356E-3,9.6449256E-4,0E0,0E0,0E0,0E0],"parents":[2147483647,0,0,2,2,3,3,4,4],"right_children":[2,-1,4,6,8,-1,-1,-1,-1],"split_conditions":[9E0,-4.959412E-1,6.03E0,2.5E1,2.2E1,-7.5659186E-2,-1.7404176E-2,6.304627E-2,1.7349243E-2],"split_indices":[1,0,2,0,0,0,0,0,0],"split_type":[0,0,0,0,0,0,0,0,0],"sum_hessian":[1E1,1E0,9E0,3E0,6E0,2E0,1E0,5E0,1E0],"tree_param":{"num_deleted":"0","num_feature":"5","num_nodes":"9","size_leaf_vector":"1"}},{"base_weights":[-2.2455944E-1,-4.2154542E-1,3.401489E-2,-1.7596436E-1,1.4914377E-1,-7.190552E-2,-2.2448732E-2,9.796143E-3,1.6311646E-1,5.282227E-2,1.4749146E-2],"categories":[],"categories_nodes":[],"categories_segments":[],"categories_sizes":[],"default_left":[0,0,0,0,0,0,0,0,0,0,0],"id":19,"left_children":[1,-1,3,5,7,-1,-1,-1,9,-1,-1],"loss_changes":[3.4057746E0,0E0,2.6799074E-1,7.842228E-3,6.067395E-3,0E0,0E0,0E0,2.0293891E-4,0E0,0E0],"parents":[2147483647,0,0,2,2,3,3,4,4,8,8],"right_children":[2,-1,4,6,8,-1,-1,-1,10,-1,-1],"split_conditions":[9E0,-4.2154542E-1,6.03E0,2.3E1,1.6E1,-7.190552E-2,-2.2448732E-2,9.796143E-3,2.2E1,5.282227E-2,1.4749146E-2],"split_indices":[1,0,2,0,0,0,0,0,0,0,0],"split_type":[0,0,0,0,0,0,0,0,0,0,0],"sum_hessian":[1E1,1E0,9E0,3E0,6E0,1E0,2E0,1E0,5E0,4E0,1E0],"tree_param":{"num_deleted":"0","num_feature":"5","num_nodes":"11","size_leaf_vector":"1"}},{"base_weights":[-1.9704923E-1,-3.5830995E-1,2.211914E-2,-1.4675903E-1,1.15461074E-1,-6.1120607E-2,-1.7956544E-2,8.322144E-3,3.763733E-2],"categories":[],"categories_nodes":[],"categories_segments":[],"categories_sizes":[],"default_left":[0,0,0,0,0,0,0,0,0],"id":20,"left_children":[1,-1,3,5,7,-1,-1,-1,-1],"loss_changes":[2.4308028E0,0E0,1.7457911E-1,7.6112524E-3,2.658151E-3,0E0,0E0,0E0,0E0],"parents":[2147483647,0,0,2,2,3,3,4,4],"right_children":[2,-1,4,6,8,-1,-1,-1,-1],"split_conditions":[9E0,-3.5830995E-1,6.03E0,2.3E1,1.6E1,-6.1120607E-2,-1.7956544E-2,8.322144E-3,3.763733E-2],"split_indices":[1,0,2,0,0,0,0,0,0],"split_type":[0,0,0,0,0,0,0,0,0],"sum_hessian":[1E1,1E0,9E0,3E0,6E0,1E0,2E0,1E0,5E0],"tree_param":{"num_deleted":"0","num_feature":"5","num_nodes":"9","size_leaf_vector":"1"}},{"base_weights":[-1.7352849E-1,-3.0455935E-1,1.2158203E-2,-1.2251282E-1,8.7376185E-2,-5.195618E-2,-1.4367676E-2,9.428915E-2,6.884766E-3,7.0770266E-3,3.1113282E-2],"categories":[],"categories_nodes":[],"categories_segments":[],"categories_sizes":[],"default_left":[0,0,0,0,0,0,0,0,0,0,0],"id":21,"left_children":[1,-1,3,5,7,-1,-1,9,-1,-1,-1],"loss_changes":[1.7314978E0,0E0,1.1200153E-1,6.8310946E-3,9.538047E-4,0E0,0E0,1.5501231E-3,0E0,0E0,0E0],"parents":[2147483647,0,0,2,2,3,3,4,4,7,7],"right_children":[2,-1,4,6,8,-1,-1,10,-1,-1,-1],"split_conditions":[9E0,-3.0455935E-1,6.03E0,2.3E1,2.2E1,-5.195618E-2,-1.4367676E-2,1.6E1,6.884766E-3,7.0770266E-3,3.1113282E-2],"split_indices":[1,0,2,0,0,0,0,0,0,0,0],"split_type":[0,0,0,0,0,0,0,0,0,0,0],"sum_hessian":[1E1,1E0,9E0,3E0,6E0,1E0,2E0,5E0,1E0,1E0,4E0],"tree_param":{"num_deleted":"0","num_feature":"5","num_nodes":"11","size_leaf_vector":"1"}},{"base_weights":[-1.5110086E-1,-2.5887454E-1,6.3720704E-3,-1.0235596E-1,6.759208E-2,-4.416504E-2,-1.1499024E-2,7.235718E-2,5.85022E-3,6.015015E-3,2.364258E-2],"categories":[],"categories_nodes":[],"categories_segments":[],"categories_sizes":[],"default_left":[0,0,0,0,0,0,0,0,0,0,0],"id":22,"left_children":[1,-1,3,5,7,-1,-1,9,-1,-1,-1],"loss_changes":[1.2385046E0,0E0,7.348175E-2,5.8461875E-3,1.9310415E-4,0E0,0E0,4.4461712E-4,0E0,0E0,0E0],"parents":[2147483647,0,0,2,2,3,3,4,4,7,7],"right_children":[2,-1,4,6,8,-1,-1,10,-1,-1,-1],"split_conditions":[9E0,-2.5887454E-1,6.03E0,2.3E1,2.2E1,-4.416504E-2,-1.1499024E-2,1.6E1,5.85022E-3,6.015015E-3,2.364258E-2],"split_indices":[1,0,2,0,0,0,0,0,0,0,0],"split_type":[0,0,0,0,0,0,0,0,0,0,0],"sum_hessian":[1E1,1E0,9E0,3E0,6E0,1E0,2E0,5E0,1E0,1E0,4E0],"tree_param":{"num_deleted":"0","num_feature":"5","num_nodes":"11","size_leaf_vector":"1"}},{"base_weights":[-1.311368E-1,-2.2004701E-1,2.4475097E-3,-8.557129E-2,1.5718298E-2,-3.753662E-2,-9.204102E-3],"categories":[],"categories_nodes":[],"categories_segments":[],"categories_sizes":[],"default_left":[0,0,0,0,0,0,0],"id":23,"left_children":[1,-1,3,5,-1,-1,-1],"loss_changes":[8.869096E-1,0E0,4.8446033E-2,4.845131E-3,0E0,0E0,0E0],"parents":[2147483647,0,0,2,2,3,3],"right_children":[2,-1,4,6,-1,-1,-1],"split_conditions":[9E0,-2.2004701E-1,6.03E0,2.3E1,1.5718298E-2,-3.753662E-2,-9.204102E-3],"split_indices":[1,0,2,0,0,0,0],"split_type":[0,0,0,0,0,0,0],"sum_hessian":[1E1,1E0,9E0,3E0,6E0,1E0,2E0],"tree_param":{"num_deleted":"0","num_feature":"5","num_nodes":"7","size_leaf_vector":"1"}},{"base_weights":[-1.1463512E-1,-1.8704224E-1,-1.4038086E-3,-7.157898E-2,3.8896833E-2,-3.1906128E-2,-7.36084E-3,4.248047E-2,2.609253E-3,2.746582E-3,1.4194337E-2],"categories":[],"categories_nodes":[],"categories_segments":[],"categories_sizes":[],"default_left":[0,0,0,0,0,0,0,0,0,0,0],"id":24,"left_children":[1,-1,3,5,7,-1,-1,9,-1,-1,-1],"loss_changes":[6.329064E-1,0E0,3.1065239E-2,3.9341096E-3,3.8808957E-4,0E0,0E0,5.333843E-4,0E0,0E0,0E0],"parents":[2147483647,0,0,2,2,3,3,4,4,7,7],"right_children":[2,-1,4,6,8,-1,-1,10,-1,-1,-1],"split_conditions":[9E0,-1.8704224E-1,6.03E0,2.3E1,2.2E1,-3.1906128E-2,-7.36084E-3,1.6E1,2.609253E-3,2.746582E-3,1.4194337E-2],"split_indices":[1,0,2,0,0,0,0,0,0,0,0],"split_type":[0,0,0,0,0,0,0,0,0,0,0],"sum_hessian":[1E1,1E0,9E0,3E0,6E0,1E0,2E0,5E0,1E0,1E0,4E0],"tree_param":{"num_deleted":"0","num_feature":"5","num_nodes":"11","size_leaf_vector":"1"}},{"base_weights":[-9.9043414E-2,-1.5898132E-1,-2.960205E-3,-5.9906006E-2,3.000314E-2,-2.7117921E-2,-5.8837896E-3,3.2541912E-2,2.2155764E-3,2.3345947E-3,1.078125E-2],"categories":[],"categories_nodes":[],"categories_segments":[],"categories_sizes":[],"default_left":[0,0,0,0,0,0,0,0,0,0,0],"id":25,"left_children":[1,-1,3,5,7,-1,-1,9,-1,-1,-1],"loss_changes":[4.538501E-1,0E0,2.0568607E-2,3.1408612E-3,1.6162125E-4,0E0,0E0,2.2478262E-4,0E0,0E0,0E0],"parents":[2147483647,0,0,2,2,3,3,4,4,7,7],"right_children":[2,-1,4,6,8,-1,-1,10,-1,-1,-1],"split_conditions":[9E0,-1.5898132E-1,6.03E0,2.3E1,2.2E1,-2.7117921E-2,-5.8837896E-3,1.6E1,2.2155764E-3,2.3345947E-3,1.078125E-2],"split_indices":[1,0,2,0,0,0,0,0,0,0,0],"split_type":[0,0,0,0,0,0,0,0,0,0,0],"sum_hessian":[1E1,1E0,9E0,3E0,6E0,1E0,2E0,5E0,1E0,1E0,4E0],"tree_param":{"num_deleted":"0","num_feature":"5","num_nodes":"11","size_leaf_vector":"1"}},{"base_weights":[-8.539928E-2,-1.3513184E-1,-3.8513183E-3,-5.0201416E-2,2.318464E-2,-2.305298E-2,-4.7119143E-3,2.4953207E-2,1.8859864E-3,1.9866945E-3,8.188477E-3],"categories":[],"categories_nodes":[],"categories_segments":[],"categories_sizes":[],"default_left":[0,0,0,0,0,0,0,0,0,0,0],"id":26,"left_children":[1,-1,3,5,7,-1,-1,9,-1,-1,-1],"loss_changes":[3.2571632E-1,0E0,1.3695095E-2,2.469116E-3,5.232566E-5,0E0,0E0,7.679872E-5,0E0,0E0,0E0],"parents":[2147483647,0,0,2,2,3,3,4,4,7,7],"right_children":[2,-1,4,6,8,-1,-1,10,-1,-1,-1],"split_conditions":[9E0,-1.3513184E-1,6.03E0,2.3E1,2.2E1,-2.305298E-2,-4.7119143E-3,1.6E1,1.8859864E-3,1.9866945E-3,8.188477E-3],"split_indices":[1,0,2,0,0,0,0,0,0,0,0],"split_type":[0,0,0,0,0,0,0,0,0,0,0],"sum_hessian":[1E1,1E0,9E0,3E0,6E0,1E0,2E0,5E0,1E0,1E0,4E0],"tree_param":{"num_deleted":"0","num_feature":"5","num_nodes":"11","size_leaf_vector":"1"}},{"base_weights":[-7.349188E-2,-1.1486206E-1,-4.2663575E-3,-1.9592285E-2,9.772407E-3,-1.2573242E-2,1.7953055E-2,-4.8706057E-3,-7.8735355E-4,1.9165039E-2,1.602173E-3,1.6845703E-3,6.2255864E-3],"categories":[],"categories_nodes":[],"categories_segments":[],"categories_sizes":[],"default_left":[0,0,0,0,0,0,0,0,0,0,0,0,0],"id":27,"left_children":[1,-1,3,-1,5,7,9,-1,-1,11,-1,-1,-1],"loss_changes":[2.339547E-1,0E0,9.207651E-3,0E0,1.8709451E-3,6.669015E-5,4.6505593E-6,0E0,0E0,1.2487173E-5,0E0,0E0,0E0],"parents":[2147483647,0,0,2,2,4,4,5,5,6,6,9,9],"right_children":[2,-1,4,-1,6,8,10,-1,-1,12,-1,-1,-1],"split_conditions":[9E0,-1.1486206E-1,4.36E0,-1.9592285E-2,6.03E0,2.5E1,2.2E1,-4.8706057E-3,-7.8735355E-4,1.6E1,1.602173E-3,1.6845703E-3,6.2255864E-3],"split_indices":[1,0,2,0,2,0,0,0,0,0,0,0,0],"split_type":[0,0,0,0,0,0,0,0,0,0,0,0,0],"sum_hessian":[1E1,1E0,9E0,1E0,8E0,2E0,6E0,1E0,1E0,5E0,1E0,1E0,4E0],"tree_param":{"num_deleted":"0","num_feature":"5","num_nodes":"13","size_leaf_vector":"1"}},{"base_weights":[-6.331565E-2,-9.763184E-2,-4.559326E-3,-1.6653443E-2,7.2699655E-3,-1.0681152E-2,4.1774204E-3,-4.138184E-3,-6.68335E-4],"categories":[],"categories_nodes":[],"categories_segments":[],"categories_sizes":[],"default_left":[0,0,0,0,0,0,0,0,0],"id":28,"left_children":[1,-1,3,-1,5,7,-1,-1,-1],"loss_changes":[1.6793196E-1,0E0,6.430845E-3,0E0,1.2238773E-3,4.8210844E-5,0E0,0E0,0E0],"parents":[2147483647,0,0,2,2,4,4,5,5],"right_children":[2,-1,4,-1,6,8,-1,-1,-1],"split_conditions":[9E0,-9.763184E-2,4.36E0,-1.6653443E-2,6.03E0,2.5E1,4.1774204E-3,-4.138184E-3,-6.68335E-4],"split_indices":[1,0,2,0,2,0,0,0,0],"split_type":[0,0,0,0,0,0,0,0,0],"sum_hessian":[1E1,1E0,9E0,1E0,8E0,2E0,6E0,1E0,1E0],"tree_param":{"num_deleted":"0","num_feature":"5","num_nodes":"9","size_leaf_vector":"1"}},{"base_weights":[-5.4748535E-2,-8.2983404E-2,-4.9011232E-3,-1.4154053E-2,5.0387913E-3,-9.073894E-3,1.03672575E-2,-3.5156251E-3,-5.6762696E-4,1.1271159E-2,7.415772E-4,8.056641E-4,3.7353516E-3],"categories":[],"categories_nodes":[],"categories_segments":[],"categories_sizes":[],"default_left":[0,0,0,0,0,0,0,0,0,0,0,0,0],"id":29,"left_children":[1,-1,3,-1,5,7,9,-1,-1,11,-1,-1,-1],"loss_changes":[1.2029643E-1,0E0,4.4402326E-3,0E0,7.70862E-4,3.4811586E-5,2.2094813E-5,0E0,0E0,2.7348578E-5,0E0,0E0,0E0],"parents":[2147483647,0,0,2,2,4,4,5,5,6,6,9,9],"right_children":[2,-1,4,-1,6,8,10,-1,-1,12,-1,-1,-1],"split_conditions":[9E0,-8.2983404E-2,4.36E0,-1.4154053E-2,6.03E0,2.5E1,2.2E1,-3.5156251E-3,-5.6762696E-4,1.6E1,7.415772E-4,8.056641E-4,3.7353516E-3],"split_indices":[1,0,2,0,2,0,0,0,0,0,0,0,0],"split_type":[0,0,0,0,0,0,0,0,0,0,0,0,0],"sum_hessian":[1E1,1E0,9E0,1E0,8E0,2E0,6E0,1E0,1E0,5E0,1E0,1E0,4E0],"tree_param":{"num_deleted":"0","num_feature":"5","num_nodes":"13","size_leaf_vector":"1"}},{"base_weights":[-4.703591E-2,-7.053223E-2,-4.7180178E-3,-1.203003E-2,3.668891E-3,-7.710775E-3,8.0217635E-3,-2.9846192E-3,-4.852295E-4,8.656819E-3,6.317139E-4,6.866455E-4,2.841797E-3],"categories":[],"categories_nodes":[],"categories_segments":[],"categories_sizes":[],"default_left":[0,0,0,0,0,0,0,0,0,0,0,0,0],"id":30,"left_children":[1,-1,3,-1,5,7,9,-1,-1,11,-1,-1,-1],"loss_changes":[8.643745E-2,0E0,3.1145858E-3,0E0,5.0766213E-4,2.481851E-5,8.070376E-6,0E0,0E0,9.490323E-6,0E0,0E0,0E0],"parents":[2147483647,0,0,2,2,4,4,5,5,6,6,9,9],"right_children":[2,-1,4,-1,6,8,10,-1,-1,12,-1,-1,-1],"split_conditions":[9E0,-7.053223E-2,4.36E0,-1.203003E-2,6.03E0,2.5E1,2.2E1,-2.9846192E-3,-4.852295E-4,1.6E1,6.317139E-4,6.866455E-4,2.841797E-3],"split_indices":[1,0,2,0,2,0,0,0,0,0,0,0,0],"split_type":[0,0,0,0,0,0,0,0,0,0,0,0,0],"sum_hessian":[1E1,1E0,9E0,1E0,8E0,2E0,6E0,1E0,1E0,5E0,1E0,1E0,4E0],"tree_param":{"num_deleted":"0","num_feature":"5","num_nodes":"13","size_leaf_vector":"1"}},{"base_weights":[-4.037198E-2,-5.994873E-2,-4.4433596E-3,-1.0226441E-2,2.638075E-3,-6.551107E-3,6.199428E-3,-2.536011E-3,-4.1198733E-4,6.632487E-3,5.4016116E-4,5.859375E-4,2.1533205E-3],"categories":[],"categories_nodes":[],"categories_segments":[],"categories_sizes":[],"default_left":[0,0,0,0,0,0,0,0,0,0,0,0,0],"id":31,"left_children":[1,-1,3,-1,5,7,9,-1,-1,11,-1,-1,-1],"loss_changes":[6.2131904E-2,0E0,2.1892025E-3,0E0,3.351464E-4,1.7939761E-5,1.3927929E-6,0E0,0E0,1.2894452E-6,0E0,0E0,0E0],"parents":[2147483647,0,0,2,2,4,4,5,5,6,6,9,9],"right_children":[2,-1,4,-1,6,8,10,-1,-1,12,-1,-1,-1],"split_conditions":[9E0,-5.994873E-2,4.36E0,-1.0226441E-2,6.03E0,2.5E1,2.2E1,-2.536011E-3,-4.1198733E-4,1.6E1,5.4016116E-4,5.859375E-4,2.1533205E-3],"split_indices":[1,0,2,0,2,0,0,0,0,0,0,0,0],"split_type":[0,0,0,0,0,0,0,0,0,0,0,0,0],"sum_hessian":[1E1,1E0,9E0,1E0,8E0,2E0,6E0,1E0,1E0,5E0,1E0,1E0,4E0],"tree_param":{"num_deleted":"0","num_feature":"5","num_nodes":"13","size_leaf_vector":"1"}},{"base_weights":[-3.4601387E-2,-5.0958253E-2,-4.0893555E-3,-8.688355E-3,1.8920898E-3,-5.554199E-3,1.4439174E-3,-2.1514893E-3,-3.479004E-4],"categories":[],"categories_nodes":[],"categories_segments":[],"categories_sizes":[],"default_left":[0,0,0,0,0,0,0,0,0],"id":32,"left_children":[1,-1,3,-1,5,7,-1,-1,-1],"loss_changes":[4.4702824E-2,0E0,1.5424918E-3,0E0,2.2248604E-4,1.3006851E-5,0E0,0E0,0E0],"parents":[2147483647,0,0,2,2,4,4,5,5],"right_children":[2,-1,4,-1,6,8,-1,-1,-1],"split_conditions":[9E0,-5.0958253E-2,4.36E0,-8.688355E-3,6.03E0,2.5E1,1.4439174E-3,-2.1514893E-3,-3.479004E-4],"split_indices":[1,0,2,0,2,0,0,0,0],"split_type":[0,0,0,0,0,0,0,0,0],"sum_hessian":[1E1,1E0,9E0,1E0,8E0,2E0,6E0,1E0,1E0],"tree_param":{"num_deleted":"0","num_feature":"5","num_nodes":"9","size_leaf_vector":"1"}},{"base_weights":[-2.9751865E-2,-4.33136E-2,-3.8513183E-3,-7.388306E-3,1.1935764E-3,-4.7200522E-3,3.5574776E-3,-1.8310548E-3,-2.9296876E-4,3.885905E-3,2.3803712E-4,2.746582E-4,1.2890626E-3],"categories":[],"categories_nodes":[],"categories_segments":[],"categories_sizes":[],"default_left":[0,0,0,0,0,0,0,0,0,0,0,0,0],"id":33,"left_children":[1,-1,3,-1,5,7,9,-1,-1,11,-1,-1,-1],"loss_changes":[3.2101814E-2,0E0,1.0775409E-3,0E0,1.426046E-4,9.576477E-6,3.2711541E-6,0E0,0E0,3.3905162E-6,0E0,0E0,0E0],"parents":[2147483647,0,0,2,2,4,4,5,5,6,6,9,9],"right_children":[2,-1,4,-1,6,8,10,-1,-1,12,-1,-1,-1],"split_conditions":[9E0,-4.33136E-2,4.36E0,-7.388306E-3,6.03E0,2.5E1,2.2E1,-1.8310548E-3,-2.9296876E-4,1.6E1,2.3803712E-4,2.746582E-4,1.2890626E-3],"split_indices":[1,0,2,0,2,0,0,0,0,0,0,0,0],"split_type":[0,0,0,0,0,0,0,0,0,0,0,0,0],"sum_hessian":[1E1,1E0,9E0,1E0,8E0,2E0,6E0,1E0,1E0,5E0,1E0,1E0,4E0],"tree_param":{"num_deleted":"0","num_feature":"5","num_nodes":"13","size_leaf_vector":"1"}},{"base_weights":[-2.5462758E-2,-3.6813356E-2,-3.4667968E-3,-6.2805177E-3,8.002387E-4,-4.007975E-3,2.746582E-3,-1.5563966E-3,-2.471924E-4,2.98055E-3,2.0141603E-4,2.2888185E-4,9.814453E-4],"categories":[],"categories_nodes":[],"categories_segments":[],"categories_sizes":[],"default_left":[0,0,0,0,0,0,0,0,0,0,0,0,0],"id":34,"left_children":[1,-1,3,-1,5,7,9,-1,-1,11,-1,-1,-1],"loss_changes":[2.3104385E-2,0E0,7.6212996E-4,0E0,9.523414E-5,6.9967173E-6,1.397606E-6,0E0,0E0,1.3751269E-6,0E0,0E0,0E0],"parents":[2147483647,0,0,2,2,4,4,5,5,6,6,9,9],"right_children":[2,-1,4,-1,6,8,10,-1,-1,12,-1,-1,-1],"split_conditions":[9E0,-3.6813356E-2,4.36E0,-6.2805177E-3,6.03E0,2.5E1,2.2E1,-1.5563966E-3,-2.471924E-4,1.6E1,2.0141603E-4,2.2888185E-4,9.814453E-4],"split_indices":[1,0,2,0,2,0,0,0,0,0,0,0,0],"split_type":[0,0,0,0,0,0,0,0,0,0,0,0,0],"sum_hessian":[1E1,1E0,9E0,1E0,8E0,2E0,6E0,1E0,1E0,5E0,1E0,1E0,4E0],"tree_param":{"num_deleted":"0","num_feature":"5","num_nodes":"13","size_leaf_vector":"1"}},{"base_weights":[-2.1772904E-2,-3.1292725E-2,-3.0883788E-3,-5.3375247E-3,5.2218966E-4,-3.3976238E-3,6.382534E-4,-1.3183594E-3,-2.1057129E-4],"categories":[],"categories_nodes":[],"categories_segments":[],"categories_sizes":[],"default_left":[0,0,0,0,0,0,0,0,0],"id":35,"left_children":[1,-1,3,-1,5,7,-1,-1,-1],"loss_changes":[1.6641496E-2,0E0,5.4016593E-4,0E0,6.386153E-5,4.97761E-6,0E0,0E0,0E0],"parents":[2147483647,0,0,2,2,4,4,5,5],"right_children":[2,-1,4,-1,6,8,-1,-1,-1],"split_conditions":[9E0,-3.1292725E-2,4.36E0,-5.3375247E-3,6.03E0,2.5E1,6.382534E-4,-1.3183594E-3,-2.1057129E-4],"split_indices":[1,0,2,0,2,0,0,0,0],"split_type":[0,0,0,0,0,0,0,0,0],"sum_hessian":[1E1,1E0,9E0,1E0,8E0,2E0,6E0,1E0,1E0],"tree_param":{"num_deleted":"0","num_feature":"5","num_nodes":"9","size_leaf_vector":"1"}},{"base_weights":[-1.8637918E-2,-2.6596071E-2,-2.7709962E-3,-4.5410157E-3,2.8483072E-4,-2.8889973E-3,1.6043527E-3,-1.1169434E-3,-1.8310547E-4,1.780192E-3,8.239746E-5,1.0070801E-4,6.0058595E-4],"categories":[],"categories_nodes":[],"categories_segments":[],"categories_sizes":[],"default_left":[0,0,0,0,0,0,0,0,0,0,0,0,0],"id":36,"left_children":[1,-1,3,-1,5,7,9,-1,-1,11,-1,-1,-1],"loss_changes":[1.1974601E-2,0E0,3.8218647E-4,0E0,4.2326392E-5,3.42975E-6,1.1477441E-6,0E0,0E0,1.2499604E-6,0E0,0E0,0E0],"parents":[2147483647,0,0,2,2,4,4,5,5,6,6,9,9],"right_children":[2,-1,4,-1,6,8,10,-1,-1,12,-1,-1,-1],"split_conditions":[9E0,-2.6596071E-2,4.36E0,-4.5410157E-3,6.03E0,2.5E1,2.2E1,-1.1169434E-3,-1.8310547E-4,1.6E1,8.239746E-5,1.0070801E-4,6.0058595E-4],"split_indices":[1,0,2,0,2,0,0,0,0,0,0,0,0],"split_type":[0,0,0,0,0,0,0,0,0,0,0,0,0],"sum_hessian":[1E1,1E0,9E0,1E0,8E0,2E0,6E0,1E0,1E0,5E0,1E0,1E0,4E0],"tree_param":{"num_deleted":"0","num_feature":"5","num_nodes":"13","size_leaf_vector":"1"}},{"base_weights":[-1.5930176E-2,-2.260437E-2,-2.4536133E-3,-3.8635256E-3,1.3563369E-4,-2.4617512E-3,3.6882673E-4,-9.5214846E-4,-1.5563966E-4],"categories":[],"categories_nodes":[],"categories_segments":[],"categories_sizes":[],"default_left":[0,0,0,0,0,0,0,0,0],"id":37,"left_children":[1,-1,3,-1,5,7,-1,-1,-1],"loss_changes":[8.623339E-3,0E0,2.716707E-4,0E0,2.8595448E-5,2.5040154E-6,0E0,0E0,0E0],"parents":[2147483647,0,0,2,2,4,4,5,5],"right_children":[2,-1,4,-1,6,8,-1,-1,-1],"split_conditions":[9E0,-2.260437E-2,4.36E0,-3.8635256E-3,6.03E0,2.5E1,3.6882673E-4,-9.5214846E-4,-1.5563966E-4],"split_indices":[1,0,2,0,2,0,0,0,0],"split_type":[0,0,0,0,0,0,0,0,0],"sum_hessian":[1E1,1E0,9E0,1E0,8E0,2E0,6E0,1E0,1E0],"tree_param":{"num_deleted":"0","num_feature":"5","num_nodes":"9","size_leaf_vector":"1"}},{"base_weights":[-1.36219375E-2,-1.921692E-2,-2.1728515E-3,-3.2867433E-3,2.0345053E-5,-2.0751953E-3,2.746582E-4,-8.056641E-4,-1.2817384E-4],"categories":[],"categories_nodes":[],"categories_segments":[],"categories_sizes":[],"default_left":[0,0,0,0,0,0,0,0,0],"id":38,"left_children":[1,-1,3,-1,5,7,-1,-1,-1],"loss_changes":[6.2125274E-3,0E0,1.9285045E-4,0E0,1.8782914E-5,1.8700957E-6,0E0,0E0,0E0],"parents":[2147483647,0,0,2,2,4,4,5,5],"right_children":[2,-1,4,-1,6,8,-1,-1,-1],"split_conditions":[9E0,-1.921692E-2,4.36E0,-3.2867433E-3,6.03E0,2.5E1,2.746582E-4,-8.056641E-4,-1.2817384E-4],"split_indices":[1,0,2,0,2,0,0,0,0],"split_type":[0,0,0,0,0,0,0,0,0],"sum_hessian":[1E1,1E0,9E0,1E0,8E0,2E0,6E0,1E0,1E0],"tree_param":{"num_deleted":"0","num_feature":"5","num_nodes":"9","size_leaf_vector":"1"}},{"base_weights":[-1.1646617E-2,-1.6333008E-2,-1.9226074E-3,-2.7923584E-3,-6.781684E-5,-1.7700195E-3,2.0141603E-4,-6.866455E-4,-1.09863286E-4],"categories":[],"categories_nodes":[],"categories_segments":[],"categories_sizes":[],"default_left":[0,0,0,0,0,0,0,0,0],"id":39,"left_children":[1,-1,3,-1,5,7,-1,-1,-1],"loss_changes":[4.473042E-3,0E0,1.3634976E-4,0E0,1.2512836E-5,1.3466924E-6,0E0,0E0,0E0],"parents":[2147483647,0,0,2,2,4,4,5,5],"right_children":[2,-1,4,-1,6,8,-1,-1,-1],"split_conditions":[9E0,-1.6333008E-2,4.36E0,-2.7923584E-3,6.03E0,2.5E1,2.0141603E-4,-6.866455E-4,-1.09863286E-4],"split_indices":[1,0,2,0,2,0,0,0,0],"split_type":[0,0,0,0,0,0,0,0,0],"sum_hessian":[1E1,1E0,9E0,1E0,8E0,2E0,6E0,1E0,1E0],"tree_param":{"num_deleted":"0","num_feature":"5","num_nodes":"9","size_leaf_vector":"1"}},{"base_weights":[-9.932085E-3,-1.3879395E-2,-1.6723633E-3,-2.371216E-3,-1.0172526E-4,-5.859375E-4,3.7384033E-4,1.9531252E-4,-9.1552734E-5],"categories":[],"categories_nodes":[],"categories_segments":[],"categories_sizes":[],"default_left":[0,0,0,0,0,0,0,0,0],"id":40,"left_children":[1,-1,3,-1,5,-1,7,-1,-1],"loss_changes":[3.2236942E-3,0E0,9.707324E-5,0E0,8.654315E-6,0E0,1.7044756E-6,0E0,0E0],"parents":[2147483647,0,0,2,2,4,4,6,6],"right_children":[2,-1,4,-1,6,-1,8,-1,-1],"split_conditions":[9E0,-1.3879395E-2,4.36E0,-2.371216E-3,1.44E0,-5.859375E-4,2.2E1,1.9531252E-4,-9.1552734E-5],"split_indices":[1,0,2,0,3,0,0,0,0],"split_type":[0,0,0,0,0,0,0,0,0],"sum_hessian":[1E1,1E0,9E0,1E0,8E0,1E0,7E0,5E0,2E0],"tree_param":{"num_deleted":"0","num_feature":"5","num_nodes":"9","size_leaf_vector":"1"}},{"base_weights":[-8.467241E-3,-1.1801148E-2,-1.4465332E-3,-2.0141602E-3,-1.15288625E-4,-4.943848E-4,2.822876E-4,1.4953615E-4,-7.324219E-5],"categories":[],"categories_nodes":[],"categories_segments":[],"categories_sizes":[],"default_left":[0,0,0,0,0,0,0,0,0],"id":41,"left_children":[1,-1,3,-1,5,-1,7,-1,-1],"loss_changes":[2.3271127E-3,0E0,6.9347065E-5,0E0,5.9493404E-6,0E0,1.0320606E-6,0E0,0E0],"parents":[2147483647,0,0,2,2,4,4,6,6],"right_children":[2,-1,4,-1,6,-1,8,-1,-1],"split_conditions":[9E0,-1.1801148E-2,4.36E0,-2.0141602E-3,1.44E0,-4.943848E-4,2.2E1,1.4953615E-4,-7.324219E-5],"split_indices":[1,0,2,0,3,0,0,0,0],"split_type":[0,0,0,0,0,0,0,0,0],"sum_hessian":[1E1,1E0,9E0,1E0,8E0,1E0,7E0,5E0,2E0],"tree_param":{"num_deleted":"0","num_feature":"5","num_nodes":"9","size_leaf_vector":"1"}},{"base_weights":[-7.2132456E-3,-1.003418E-2,-1.2451172E-3,-1.7120362E-3,-1.15288625E-4,-4.2114258E-4,6.637574E-5],"categories":[],"categories_nodes":[],"categories_segments":[],"categories_sizes":[],"default_left":[0,0,0,0,0,0,0],"id":42,"left_children":[1,-1,3,-1,5,-1,-1],"loss_changes":[1.6806023E-3,0E0,4.9751296E-5,0E0,4.213355E-6,0E0,0E0],"parents":[2147483647,0,0,2,2,4,4],"right_children":[2,-1,4,-1,6,-1,-1],"split_conditions":[9E0,-1.003418E-2,4.36E0,-1.7120362E-3,1.44E0,-4.2114258E-4,6.637574E-5],"split_indices":[1,0,2,0,3,0,0],"split_type":[0,0,0,0,0,0,0],"sum_hessian":[1E1,1E0,9E0,1E0,8E0,1E0,7E0],"tree_param":{"num_deleted":"0","num_feature":"5","num_nodes":"7","size_leaf_vector":"1"}},{"base_weights":[-6.147905E-3,-8.532715E-3,-1.0742188E-3,-1.4556885E-3,-1.15288625E-4,-2.8686525E-4,7.847377E-5],"categories":[],"categories_nodes":[],"categories_segments":[],"categories_sizes":[],"default_left":[0,0,0,0,0,0,0],"id":43,"left_children":[1,-1,3,-1,5,-1,-1],"loss_changes":[1.2137137E-3,0E0,3.56697E-5,0E0,3.102398E-6,0E0,0E0],"parents":[2147483647,0,0,2,2,4,4],"right_children":[2,-1,4,-1,6,-1,-1],"split_conditions":[9E0,-8.532715E-3,4.36E0,-1.4556885E-3,6.03E0,-2.8686525E-4,7.847377E-5],"split_indices":[1,0,2,0,2,0,0],"split_type":[0,0,0,0,0,0,0],"sum_hessian":[1E1,1E0,9E0,1E0,8E0,2E0,6E0],"tree_param":{"num_deleted":"0","num_feature":"5","num_nodes":"7","size_leaf_vector":"1"}},{"base_weights":[-5.2157314E-3,-7.2509767E-3,-9.033203E-4,-1.2359619E-3,-8.816189E-5,-3.1127932E-4,4.8065187E-5],"categories":[],"categories_nodes":[],"categories_segments":[],"categories_sizes":[],"default_left":[0,0,0,0,0,0,0],"id":44,"left_children":[1,-1,3,-1,5,-1,-1],"loss_changes":[8.772877E-4,0E0,2.5856783E-5,0E0,2.2886218E-6,0E0,0E0],"parents":[2147483647,0,0,2,2,4,4],"right_children":[2,-1,4,-1,6,-1,-1],"split_conditions":[9E0,-7.2509767E-3,4.36E0,-1.2359619E-3,1.44E0,-3.1127932E-4,4.8065187E-5],"split_indices":[1,0,2,0,3,0,0],"split_type":[0,0,0,0,0,0,0],"sum_hessian":[1E1,1E0,9E0,1E0,8E0,1E0,7E0],"tree_param":{"num_deleted":"0","num_feature":"5","num_nodes":"7","size_leaf_vector":"1"}},{"base_weights":[-4.4555664E-3,-6.1614993E-3,-7.9345703E-4,-1.0528564E-3,-1.0172526E-4,7.324219E-5,-1.7852784E-4],"categories":[],"categories_nodes":[],"categories_segments":[],"categories_sizes":[],"default_left":[0,0,0,0,0,0,0],"id":45,"left_children":[1,-1,3,-1,5,-1,-1],"loss_changes":[6.3156895E-4,0E0,1.8430874E-5,0E0,1.6810372E-6,0E0,0E0],"parents":[2147483647,0,0,2,2,4,4],"right_children":[2,-1,4,-1,6,-1,-1],"split_conditions":[9E0,-6.1614993E-3,4.36E0,-1.0528564E-3,2.2E1,7.324219E-5,-1.7852784E-4],"split_indices":[1,0,2,0,0,0,0],"split_type":[0,0,0,0,0,0,0],"sum_hessian":[1E1,1E0,9E0,1E0,8E0,5E0,3E0],"tree_param":{"num_deleted":"0","num_feature":"5","num_nodes":"7","size_leaf_vector":"1"}},{"base_weights":[-3.778631E-3,-5.2368166E-3,-6.652832E-4,-8.9721684E-4,-7.459852E-5,-2.3803712E-4,3.4332275E-5],"categories":[],"categories_nodes":[],"categories_segments":[],"categories_sizes":[],"default_left":[0,0,0,0,0,0,0],"id":46,"left_children":[1,-1,3,-1,5,-1,-1],"loss_changes":[4.567951E-4,0E0,1.351291E-5,0E0,1.3138374E-6,0E0,0E0],"parents":[2147483647,0,0,2,2,4,4],"right_children":[2,-1,4,-1,6,-1,-1],"split_conditions":[9E0,-5.2368166E-3,4.36E0,-8.9721684E-4,1.44E0,-2.3803712E-4,3.4332275E-5],"split_indices":[1,0,2,0,3,0,0],"split_type":[0,0,0,0,0,0,0],"sum_hessian":[1E1,1E0,9E0,1E0,8E0,1E0,7E0],"tree_param":{"num_deleted":"0","num_feature":"5","num_nodes":"7","size_leaf_vector":"1"}},{"base_weights":[-3.2348633E-3,-4.449463E-3,-5.92041E-4,-7.5988774E-4,-9.494358E-5,-1.0681153E-4,9.6130374E-5],"categories":[],"categories_nodes":[],"categories_segments":[],"categories_sizes":[],"default_left":[0,0,0,0,0,0,0],"id":47,"left_children":[1,-1,3,-1,5,-1,-1],"loss_changes":[3.283467E-4,0E0,9.407766E-6,0E0,1.0901649E-6,0E0,0E0],"parents":[2147483647,0,0,2,2,4,4],"right_children":[2,-1,4,-1,6,-1,-1],"split_conditions":[9E0,-4.449463E-3,4.36E0,-7.5988774E-4,9.54E0,-1.0681153E-4,9.6130374E-5],"split_indices":[1,0,2,0,2,0,0],"split_type":[0,0,0,0,0,0,0],"sum_hessian":[1E1,1E0,9E0,1E0,8E0,5E0,3E0],"tree_param":{"num_deleted":"0","num_feature":"5","num_nodes":"7","size_leaf_vector":"1"}},{"base_weights":[-2.7410334E-3,-3.781128E-3,-4.943848E-4,-6.5002445E-4,-2.0345055E-5],"categories":[],"categories_nodes":[],"categories_segments":[],"categories_sizes":[],"default_left":[0,0,0,0,0],"id":48,"left_children":[1,-1,3,-1,-1],"loss_changes":[2.3750777E-4,0E0,6.9868233E-6,0E0,0E0],"parents":[2147483647,0,0,2,2],"right_children":[2,-1,4,-1,-1],"split_conditions":[9E0,-3.781128E-3,4.36E0,-6.5002445E-4,-2.0345055E-5],"split_indices":[1,0,2,0,0],"split_type":[0,0,0,0,0],"sum_hessian":[1E1,1E0,9E0,1E0,8E0],"tree_param":{"num_deleted":"0","num_feature":"5","num_nodes":"5","size_leaf_vector":"1"}},{"base_weights":[-2.335982E-3,-3.213501E-3,-4.272461E-4,-5.493164E-4,-2.0345055E-5],"categories":[],"categories_nodes":[],"categories_segments":[],"categories_sizes":[],"default_left":[0,0,0,0,0],"id":49,"left_children":[1,-1,3,-1,-1],"loss_changes":[1.712802E-4,0E0,4.9215223E-6,0E0,0E0],"parents":[2147483647,0,0,2,2],"right_children":[2,-1,4,-1,-1],"split_conditions":[9E0,-3.213501E-3,4.36E0,-5.493164E-4,-2.0345055E-5],"split_indices":[1,0,2,0,0],"split_type":[0,0,0,0,0],"sum_hessian":[1E1,1E0,9E0,1E0,8E0],"tree_param":{"num_deleted":"0","num_feature":"5","num_nodes":"5","size_leaf_vector":"1"}},{"base_weights":[-1.9919656E-3,-2.7282715E-3,-3.7231445E-4,-4.6691895E-4,-2.0345055E-5],"categories":[],"categories_nodes":[],"categories_segments":[],"categories_sizes":[],"default_left":[0,0,0,0,0],"id":50,"left_children":[1,-1,3,-1,-1],"loss_changes":[1.2314934E-4,0E0,3.4999516E-6,0E0,0E0],"parents":[2147483647,0,0,2,2],"right_children":[2,-1,4,-1,-1],"split_conditions":[9E0,-2.7282715E-3,4.36E0,-4.6691895E-4,-2.0345055E-5],"split_indices":[1,0,2,0,0],"split_type":[0,0,0,0,0],"sum_hessian":[1E1,1E0,9E0,1E0,8E0],"tree_param":{"num_deleted":"0","num_feature":"5","num_nodes":"5","size_leaf_vector":"1"}},{"base_weights":[-1.6978871E-3,-2.3162842E-3,-3.2348634E-4,-9.613037E-4,2.6157926E-5,-3.845215E-4,-0E0],"categories":[],"categories_nodes":[],"categories_segments":[],"categories_sizes":[],"default_left":[0,0,0,0,0,0,0],"id":51,"left_children":[1,-1,3,5,-1,-1,-1],"loss_changes":[8.8561465E-5,0E0,2.7032038E-6,1.2321398E-6,0E0,0E0,0E0],"parents":[2147483647,0,0,2,2,3,3],"right_children":[2,-1,4,6,-1,-1,-1],"split_conditions":[9E0,-2.3162842E-3,6.03E0,2.5E1,2.6157926E-5,-3.845215E-4,-0E0],"split_indices":[1,0,2,0,0,0,0],"split_type":[0,0,0,0,0,0,0],"sum_hessian":[1E1,1E0,9E0,3E0,6E0,2E0,1E0],"tree_param":{"num_deleted":"0","num_feature":"5","num_nodes":"7","size_leaf_vector":"1"}},{"base_weights":[-1.4204546E-3,-1.9683838E-3,-2.5024413E-4,-3.3874513E-4,-8.138021E-6],"categories":[],"categories_nodes":[],"categories_segments":[],"categories_sizes":[],"default_left":[0,0,0,0,0],"id":52,"left_children":[1,-1,3,-1,-1],"loss_changes":[6.453239E-5,0E0,1.9303625E-6,0E0,0E0],"parents":[2147483647,0,0,2,2],"right_children":[2,-1,4,-1,-1],"split_conditions":[9E0,-1.9683838E-3,4.36E0,-3.3874513E-4,-8.138021E-6],"split_indices":[1,0,2,0,0],"split_type":[0,0,0,0,0],"sum_hessian":[1E1,1E0,9E0,1E0,8E0],"tree_param":{"num_deleted":"0","num_feature":"5","num_nodes":"5","size_leaf_vector":"1"}},{"base_weights":[-1.2096058E-3,-1.6754151E-3,-2.1362305E-4,-2.0599367E-4,2.6157926E-5],"categories":[],"categories_nodes":[],"categories_segments":[],"categories_sizes":[],"default_left":[0,0,0,0,0],"id":53,"left_children":[1,-1,3,-1,-1],"loss_changes":[4.6739864E-5,0E0,1.4827986E-6,0E0,0E0],"parents":[2147483647,0,0,2,2],"right_children":[2,-1,4,-1,-1],"split_conditions":[9E0,-1.6754151E-3,6.03E0,-2.0599367E-4,2.6157926E-5],"split_indices":[1,0,2,0,0],"split_type":[0,0,0,0,0],"sum_hessian":[1E1,1E0,9E0,3E0,6E0],"tree_param":{"num_deleted":"0","num_feature":"5","num_nodes":"5","size_leaf_vector":"1"}},{"base_weights":[-1.0098544E-3,-1.4282227E-3,-1.586914E-4,-2.5634767E-4,4.0690106E-6],"categories":[],"categories_nodes":[],"categories_segments":[],"categories_sizes":[],"default_left":[0,0,0,0,0],"id":54,"left_children":[1,-1,3,-1,-1],"loss_changes":[3.4363296E-5,0E0,1.2101399E-6,0E0,0E0],"parents":[2147483647,0,0,2,2],"right_children":[2,-1,4,-1,-1],"split_conditions":[9E0,-1.4282227E-3,4.36E0,-2.5634767E-4,4.0690106E-6],"split_indices":[1,0,2,0,0],"split_type":[0,0,0,0,0],"sum_hessian":[1E1,1E0,9E0,1E0,8E0],"tree_param":{"num_deleted":"0","num_feature":"5","num_nodes":"5","size_leaf_vector":"1"}},{"base_weights":[-8.6004083E-4,-1.2176514E-3,-4.0283205E-5],"categories":[],"categories_nodes":[],"categories_segments":[],"categories_sizes":[],"default_left":[0,0,0],"id":55,"left_children":[1,-1,-1],"loss_changes":[2.4992263E-5,0E0,0E0],"parents":[2147483647,0,0],"right_children":[2,-1,-1],"split_conditions":[9E0,-1.2176514E-3,-4.0283205E-5],"split_indices":[1,0,0],"split_type":[0,0,0],"sum_hessian":[1E1,1E0,9E0],"tree_param":{"num_deleted":"0","num_feature":"5","num_nodes":"3","size_leaf_vector":"1"}},{"base_weights":[-6.9912995E-4,-1.034546E-3,-2.3803712E-5],"categories":[],"categories_nodes":[],"categories_segments":[],"categories_sizes":[],"default_left":[0,0,0],"id":56,"left_children":[1,-1,-1],"loss_changes":[1.8470462E-5,0E0,0E0],"parents":[2147483647,0,0],"right_children":[2,-1,-1],"split_conditions":[9E0,-1.034546E-3,-2.3803712E-5],"split_indices":[1,0,0],"split_type":[0,0,0],"sum_hessian":[1E1,1E0,9E0],"tree_param":{"num_deleted":"0","num_feature":"5","num_nodes":"3","size_leaf_vector":"1"}},{"base_weights":[-6.048029E-4,-8.789063E-4,-2.3803712E-5],"categories":[],"categories_nodes":[],"categories_segments":[],"categories_sizes":[],"default_left":[0,0,0],"id":57,"left_children":[1,-1,-1],"loss_changes":[1.3205443E-5,0E0,0E0],"parents":[2147483647,0,0],"right_children":[2,-1,-1],"split_conditions":[9E0,-8.789063E-4,-2.3803712E-5],"split_indices":[1,0,0],"split_type":[0,0,0],"sum_hessian":[1E1,1E0,9E0],"tree_param":{"num_deleted":"0","num_feature":"5","num_nodes":"3","size_leaf_vector":"1"}},{"base_weights":[-5.271218E-4,-7.5073243E-4,-2.3803712E-5],"categories":[],"categories_nodes":[],"categories_segments":[],"categories_sizes":[],"default_left":[0,0,0],"id":58,"left_children":[1,-1,-1],"loss_changes":[9.5309515E-6,0E0,0E0],"parents":[2147483647,0,0],"right_children":[2,-1,-1],"split_conditions":[9E0,-7.5073243E-4,-2.3803712E-5],"split_indices":[1,0,0],"split_type":[0,0,0],"sum_hessian":[1E1,1E0,9E0],"tree_param":{"num_deleted":"0","num_feature":"5","num_nodes":"3","size_leaf_vector":"1"}},{"base_weights":[-4.60538E-4,-6.4086914E-4,-2.3803712E-5],"categories":[],"categories_nodes":[],"categories_segments":[],"categories_sizes":[],"default_left":[0,0,0],"id":59,"left_children":[1,-1,-1],"loss_changes":[6.8568706E-6,0E0,0E0],"parents":[2147483647,0,0],"right_children":[2,-1,-1],"split_conditions":[9E0,-6.4086914E-4,-2.3803712E-5],"split_indices":[1,0,0],"split_type":[0,0,0],"sum_hessian":[1E1,1E0,9E0],"tree_param":{"num_deleted":"0","num_feature":"5","num_nodes":"3","size_leaf_vector":"1"}},{"base_weights":[-3.9950284E-4,-5.4016116E-4,-2.3803712E-5],"categories":[],"categories_nodes":[],"categories_segments":[],"categories_sizes":[],"default_left":[0,0,0],"id":60,"left_children":[1,-1,-1],"loss_changes":[4.7911976E-6,0E0,0E0],"parents":[2147483647,0,0],"right_children":[2,-1,-1],"split_conditions":[9E0,-5.4016116E-4,-2.3803712E-5],"split_indices":[1,0,0],"split_type":[0,0,0],"sum_hessian":[1E1,1E0,9E0],"tree_param":{"num_deleted":"0","num_feature":"5","num_nodes":"3","size_leaf_vector":"1"}},{"base_weights":[-3.4956497E-4,-9.643555E-4,4.1852683E-5,-4.4555668E-4,-3.6621095E-5],"categories":[],"categories_nodes":[],"categories_segments":[],"categories_sizes":[],"default_left":[0,0,0,0,0],"id":61,"left_children":[1,3,-1,-1,-1],"loss_changes":[3.4419938E-6,2.0121538E-6,0E0,0E0,0E0],"parents":[2147483647,0,0,1,1],"right_children":[2,4,-1,-1,-1],"split_conditions":[9.47E0,2.3E1,4.1852683E-5,-4.4555668E-4,-3.6621095E-5],"split_indices":[2,0,0,0,0],"split_type":[0,0,0,0,0],"sum_hessian":[1E1,4E0,6E0,2E0,2E0],"tree_param":{"num_deleted":"0","num_feature":"5","num_nodes":"5","size_leaf_vector":"1"}},{"base_weights":[-2.940785E-4,-3.9367678E-4,-1.8310548E-5],"categories":[],"categories_nodes":[],"categories_segments":[],"categories_sizes":[],"default_left":[0,0,0],"id":62,"left_children":[1,-1,-1],"loss_changes":[2.52998E-6,0E0,0E0],"parents":[2147483647,0,0],"right_children":[2,-1,-1],"split_conditions":[9E0,-3.9367678E-4,-1.8310548E-5],"split_indices":[1,0,0],"split_type":[0,0,0],"sum_hessian":[1E1,1E0,9E0],"tree_param":{"num_deleted":"0","num_feature":"5","num_nodes":"3","size_leaf_vector":"1"}},{"base_weights":[-2.607866E-4,-3.3874513E-4,-1.8310548E-5],"categories":[],"categories_nodes":[],"categories_segments":[],"categories_sizes":[],"default_left":[0,0,0],"id":63,"left_children":[1,-1,-1],"loss_changes":[1.8391081E-6,0E0,0E0],"parents":[2147483647,0,0],"right_children":[2,-1,-1],"split_conditions":[9E0,-3.3874513E-4,-1.8310548E-5],"split_indices":[1,0,0],"split_type":[0,0,0],"sum_hessian":[1E1,1E0,9E0],"tree_param":{"num_deleted":"0","num_feature":"5","num_nodes":"3","size_leaf_vector":"1"}},{"base_weights":[-2.2749467E-4,-6.225586E-4,2.6157926E-5,-2.5634767E-4,4.5776367E-5],"categories":[],"categories_nodes":[],"categories_segments":[],"categories_sizes":[],"default_left":[0,0,0,0,0],"id":64,"left_children":[1,3,-1,-1,-1],"loss_changes":[1.4218224E-6,1.0292977E-6,0E0,0E0,0E0],"parents":[2147483647,0,0,1,1],"right_children":[2,4,-1,-1,-1],"split_conditions":[9.47E0,2.5E1,2.6157926E-5,-2.5634767E-4,4.5776367E-5],"split_indices":[2,0,0,0,0],"split_type":[0,0,0,0,0],"sum_hessian":[1E1,4E0,6E0,3E0,1E0],"tree_param":{"num_deleted":"0","num_feature":"5","num_nodes":"5","size_leaf_vector":"1"}},{"base_weights":[-1.6645952E-4,-2.471924E-4,-5.4931643E-6],"categories":[],"categories_nodes":[],"categories_segments":[],"categories_sizes":[],"default_left":[0,0,0],"id":65,"left_children":[1,-1,-1],"loss_changes":[1.0564246E-6,0E0,0E0],"parents":[2147483647,0,0],"right_children":[2,-1,-1],"split_conditions":[9E0,-2.471924E-4,-5.4931643E-6],"split_indices":[1,0,0],"split_type":[0,0,0],"sum_hessian":[1E1,1E0,9E0],"tree_param":{"num_deleted":"0","num_feature":"5","num_nodes":"3","size_leaf_vector":"1"}},{"base_weights":[-1.4426491E-4],"categories":[],"categories_nodes":[],"categories_segments":[],"categories_sizes":[],"default_left":[0],"id":66,"left_children":[-1],"loss_changes":[0E0],"parents":[2147483647],"right_children":[-1],"split_conditions":[-4.3279473E-5],"split_indices":[0],"split_type":[0],"sum_hessian":[1E1],"tree_param":{"num_deleted":"0","num_feature":"5","num_nodes":"1","size_leaf_vector":"1"}},{"base_weights":[-8.877841E-5],"categories":[],"categories_nodes":[],"categories_segments":[],"categories_sizes":[],"default_left":[0],"id":67,"left_children":[-1],"loss_changes":[0E0],"parents":[2147483647],"right_children":[-1],"split_conditions":[-2.6633525E-5],"split_indices":[0],"split_type":[0],"sum_hessian":[1E1],"tree_param":{"num_deleted":"0","num_feature":"5","num_nodes":"1","size_leaf_vector":"1"}},{"base_weights":[-8.877841E-5],"categories":[],"categories_nodes":[],"categories_segments":[],"categories_sizes":[],"default_left":[0],"id":68,"left_children":[-1],"loss_changes":[0E0],"parents":[2147483647],"right_children":[-1],"split_conditions":[-2.6633525E-5],"split_indices":[0],"split_type":[0],"sum_hessian":[1E1],"tree_param":{"num_deleted":"0","num_feature":"5","num_nodes":"1","size_leaf_vector":"1"}},{"base_weights":[-8.877841E-5],"categories":[],"categories_nodes":[],"categories_segments":[],"categories_sizes":[],"default_left":[0],"id":69,"left_children":[-1],"loss_changes":[0E0],"parents":[2147483647],"right_children":[-1],"split_conditions":[-2.6633525E-5],"split_indices":[0],"split_type":[0],"sum_hessian":[1E1],"tree_param":{"num_deleted":"0","num_feature":"5","num_nodes":"1","size_leaf_vector":"1"}},{"base_weights":[-8.877841E-5],"categories":[],"categories_nodes":[],"categories_segments":[],"categories_sizes":[],"default_left":[0],"id":70,"left_children":[-1],"loss_changes":[0E0],"parents":[2147483647],"right_children":[-1],"split_conditions":[-2.6633525E-5],"split_indices":[0],"split_type":[0],"sum_hessian":[1E1],"tree_param":{"num_deleted":"0","num_feature":"5","num_nodes":"1","size_leaf_vector":"1"}},{"base_weights":[-8.877841E-5],"categories":[],"categories_nodes":[],"categories_segments":[],"categories_sizes":[],"default_left":[0],"id":71,"left_children":[-1],"loss_changes":[0E0],"parents":[2147483647],"right_children":[-1],"split_conditions":[-2.6633525E-5],"split_indices":[0],"split_type":[0],"sum_hessian":[1E1],"tree_param":{"num_deleted":"0","num_feature":"5","num_nodes":"1","size_leaf_vector":"1"}},{"base_weights":[-8.877841E-5],"categories":[],"categories_nodes":[],"categories_segments":[],"categories_sizes":[],"default_left":[0],"id":72,"left_children":[-1],"loss_changes":[0E0],"parents":[2147483647],"right_children":[-1],"split_conditions":[-2.6633525E-5],"split_indices":[0],"split_type":[0],"sum_hessian":[1E1],"tree_param":{"num_deleted":"0","num_feature":"5","num_nodes":"1","size_leaf_vector":"1"}},{"base_weights":[-8.877841E-5],"categories":[],"categories_nodes":[],"categories_segments":[],"categories_sizes":[],"default_left":[0],"id":73,"left_children":[-1],"loss_changes":[0E0],"parents":[2147483647],"right_children":[-1],"split_conditions":[-2.6633525E-5],"split_indices":[0],"split_type":[0],"sum_hessian":[1E1],"tree_param":{"num_deleted":"0","num_feature":"5","num_nodes":"1","size_leaf_vector":"1"}},{"base_weights":[-8.877841E-5],"categories":[],"categories_nodes":[],"categories_segments":[],"categories_sizes":[],"default_left":[0],"id":74,"left_children":[-1],"loss_changes":[0E0],"parents":[2147483647],"right_children":[-1],"split_conditions":[-2.6633525E-5],"split_indices":[0],"split_type":[0],"sum_hessian":[1E1],"tree_param":{"num_deleted":"0","num_feature":"5","num_nodes":"1","size_leaf_vector":"1"}},{"base_weights":[-8.877841E-5],"categories":[],"categories_nodes":[],"categories_segments":[],"categories_sizes":[],"default_left":[0],"id":75,"left_children":[-1],"loss_changes":[0E0],"parents":[2147483647],"right_children":[-1],"split_conditions":[-2.6633525E-5],"split_indices":[0],"split_type":[0],"sum_hessian":[1E1],"tree_param":{"num_deleted":"0","num_feature":"5","num_nodes":"1","size_leaf_vector":"1"}},{"base_weights":[-8.877841E-5],"categories":[],"categories_nodes":[],"categories_segments":[],"categories_sizes":[],"default_left":[0],"id":76,"left_children":[-1],"loss_changes":[0E0],"parents":[2147483647],"right_children":[-1],"split_conditions":[-2.6633525E-5],"split_indices":[0],"split_type":[0],"sum_hessian":[1E1],"tree_param":{"num_deleted":"0","num_feature":"5","num_nodes":"1","size_leaf_vector":"1"}},{"base_weights":[-8.877841E-5],"categories":[],"categories_nodes":[],"categories_segments":[],"categories_sizes":[],"default_left":[0],"id":77,"left_children":[-1],"loss_changes":[0E0],"parents":[2147483647],"right_children":[-1],"split_conditions":[-2.6633525E-5],"split_indices":[0],"split_type":[0],"sum_hessian":[1E1],"tree_param":{"num_deleted":"0","num_feature":"5","num_nodes":"1","size_leaf_vector":"1"}},{"base_weights":[-8.877841E-5],"categories":[],"categories_nodes":[],"categories_segments":[],"categories_sizes":[],"default_left":[0],"id":78,"left_children":[-1],"loss_changes":[0E0],"parents":[2147483647],"right_children":[-1],"split_conditions":[-2.6633525E-5],"split_indices":[0],"split_type":[0],"sum_hessian":[1E1],"tree_param":{"num_deleted":"0","num_feature":"5","num_nodes":"1","size_leaf_vector":"1"}},{"base_weights":[-8.877841E-5],"categories":[],"categories_nodes":[],"categories_segments":[],"categories_sizes":[],"default_left":[0],"id":79,"left_children":[-1],"loss_changes":[0E0],"parents":[2147483647],"right_children":[-1],"split_conditions":[-2.6633525E-5],"split_indices":[0],"split_type":[0],"sum_hessian":[1E1],"tree_param":{"num_deleted":"0","num_feature":"5","num_nodes":"1","size_leaf_vector":"1"}},{"base_weights":[-8.877841E-5],"categories":[],"categories_nodes":[],"categories_segments":[],"categories_sizes":[],"default_left":[0],"id":80,"left_children":[-1],"loss_changes":[0E0],"parents":[2147483647],"right_children":[-1],"split_conditions":[-2.6633525E-5],"split_indices":[0],"split_type":[0],"sum_hessian":[1E1],"tree_param":{"num_deleted":"0","num_feature":"5","num_nodes":"1","size_leaf_vector":"1"}},{"base_weights":[-8.877841E-5],"categories":[],"categories_nodes":[],"categories_segments":[],"categories_sizes":[],"default_left":[0],"id":81,"left_children":[-1],"loss_changes":[0E0],"parents":[2147483647],"right_children":[-1],"split_conditions":[-2.6633525E-5],"split_indices":[0],"split_type":[0],"sum_hessian":[1E1],"tree_param":{"num_deleted":"0","num_feature":"5","num_nodes":"1","size_leaf_vector":"1"}},{"base_weights":[-8.877841E-5],"categories":[],"categories_nodes":[],"categories_segments":[],"categories_sizes":[],"default_left":[0],"id":82,"left_children":[-1],"loss_changes":[0E0],"parents":[2147483647],"right_children":[-1],"split_conditions":[-2.6633525E-5],"split_indices":[0],"split_type":[0],"sum_hessian":[1E1],"tree_param":{"num_deleted":"0","num_feature":"5","num_nodes":"1","size_leaf_vector":"1"}},{"base_weights":[-8.877841E-5],"categories":[],"categories_nodes":[],"categories_segments":[],"categories_sizes":[],"default_left":[0],"id":83,"left_children":[-1],"loss_changes":[0E0],"parents":[2147483647],"right_children":[-1],"split_conditions":[-2.6633525E-5],"split_indices":[0],"split_type":[0],"sum_hessian":[1E1],"tree_param":{"num_deleted":"0","num_feature":"5","num_nodes":"1","size_leaf_vector":"1"}},{"base_weights":[-8.877841E-5],"categories":[],"categories_nodes":[],"categories_segments":[],"categories_sizes":[],"default_left":[0],"id":84,"left_children":[-1],"loss_changes":[0E0],"parents":[2147483647],"right_children":[-1],"split_conditions":[-2.6633525E-5],"split_indices":[0],"split_type":[0],"sum_hessian":[1E1],"tree_param":{"num_deleted":"0","num_feature":"5","num_nodes":"1","size_leaf_vector":"1"}},{"base_weights":[-8.877841E-5],"categories":[],"categories_nodes":[],"categories_segments":[],"categories_sizes":[],"default_left":[0],"id":85,"left_children":[-1],"loss_changes":[0E0],"parents":[2147483647],"right_children":[-1],"split_conditions":[-2.6633525E-5],"split_indices":[0],"split_type":[0],"sum_hessian":[1E1],"tree_param":{"num_deleted":"0","num_feature":"5","num_nodes":"1","size_leaf_vector":"1"}},{"base_weights":[-8.877841E-5],"categories":[],"categories_nodes":[],"categories_segments":[],"categories_sizes":[],"default_left":[0],"id":86,"left_children":[-1],"loss_changes":[0E0],"parents":[2147483647],"right_children":[-1],"split_conditions":[-2.6633525E-5],"split_indices":[0],"split_type":[0],"sum_hessian":[1E1],"tree_param":{"num_deleted":"0","num_feature":"5","num_nodes":"1","size_leaf_vector":"1"}},{"base_weights":[-8.877841E-5],"categories":[],"categories_nodes":[],"categories_segments":[],"categories_sizes":[],"default_left":[0],"id":87,"left_children":[-1],"loss_changes":[0E0],"parents":[2147483647],"right_children":[-1],"split_conditions":[-2.6633525E-5],"split_indices":[0],"split_type":[0],"sum_hessian":[1E1],"tree_param":{"num_deleted":"0","num_feature":"5","num_nodes":"1","size_leaf_vector":"1"}},{"base_weights":[-8.877841E-5],"categories":[],"categories_nodes":[],"categories_segments":[],"categories_sizes":[],"default_left":[0],"id":88,"left_children":[-1],"loss_changes":[0E0],"parents":[2147483647],"right_children":[-1],"split_conditions":[-2.6633525E-5],"split_indices":[0],"split_type":[0],"sum_hessian":[1E1],"tree_param":{"num_deleted":"0","num_feature":"5","num_nodes":"1","size_leaf_vector":"1"}},{"base_weights":[-8.877841E-5],"categories":[],"categories_nodes":[],"categories_segments":[],"categories_sizes":[],"default_left":[0],"id":89,"left_children":[-1],"loss_changes":[0E0],"parents":[2147483647],"right_children":[-1],"split_conditions":[-2.6633525E-5],"split_indices":[0],"split_type":[0],"sum_hessian":[1E1],"tree_param":{"num_deleted":"0","num_feature":"5","num_nodes":"1","size_leaf_vector":"1"}},{"base_weights":[-8.877841E-5],"categories":[],"categories_nodes":[],"categories_segments":[],"categories_sizes":[],"default_left":[0],"id":90,"left_children":[-1],"loss_changes":[0E0],"parents":[2147483647],"right_children":[-1],"split_conditions":[-2.6633525E-5],"split_indices":[0],"split_type":[0],"sum_hessian":[1E1],"tree_param":{"num_deleted":"0","num_feature":"5","num_nodes":"1","size_leaf_vector":"1"}},{"base_weights":[-8.877841E-5],"categories":[],"categories_nodes":[],"categories_segments":[],"categories_sizes":[],"default_left":[0],"id":91,"left_children":[-1],"loss_changes":[0E0],"parents":[2147483647],"right_children":[-1],"split_conditions":[-2.6633525E-5],"split_indices":[0],"split_type":[0],"sum_hessian":[1E1],"tree_param":{"num_deleted":"0","num_feature":"5","num_nodes":"1","size_leaf_vector":"1"}},{"base_weights":[-8.877841E-5],"categories":[],"categories_nodes":[],"categories_segments":[],"categories_sizes":[],"default_left":[0],"id":92,"left_children":[-1],"loss_changes":[0E0],"parents":[2147483647],"right_children":[-1],"split_conditions":[-2.6633525E-5],"split_indices":[0],"split_type":[0],"sum_hessian":[1E1],"tree_param":{"num_deleted":"0","num_feature":"5","num_nodes":"1","size_leaf_vector":"1"}},{"base_weights":[-8.877841E-5],"categories":[],"categories_nodes":[],"categories_segments":[],"categories_sizes":[],"default_left":[0],"id":93,"left_children":[-1],"loss_changes":[0E0],"parents":[2147483647],"right_children":[-1],"split_conditions":[-2.6633525E-5],"split_indices":[0],"split_type":[0],"sum_hessian":[1E1],"tree_param":{"num_deleted":"0","num_feature":"5","num_nodes":"1","size_leaf_vector":"1"}},{"base_weights":[-8.877841E-5],"categories":[],"categories_nodes":[],"categories_segments":[],"categories_sizes":[],"default_left":[0],"id":94,"left_children":[-1],"loss_changes":[0E0],"parents":[2147483647],"right_children":[-1],"split_conditions":[-2.6633525E-5],"split_indices":[0],"split_type":[0],"sum_hessian":[1E1],"tree_param":{"num_deleted":"0","num_feature":"5","num_nodes":"1","size_leaf_vector":"1"}},{"base_weights":[-8.877841E-5],"categories":[],"categories_nodes":[],"categories_segments":[],"categories_sizes":[],"default_left":[0],"id":95,"left_children":[-1],"loss_changes":[0E0],"parents":[2147483647],"right_children":[-1],"split_conditions":[-2.6633525E-5],"split_indices":[0],"split_type":[0],"sum_hessian":[1E1],"tree_param":{"num_deleted":"0","num_feature":"5","num_nodes":"1","size_leaf_vector":"1"}},{"base_weights":[-8.877841E-5],"categories":[],"categories_nodes":[],"categories_segments":[],"categories_sizes":[],"default_left":[0],"id":96,"left_children":[-1],"loss_changes":[0E0],"parents":[2147483647],"right_children":[-1],"split_conditions":[-2.6633525E-5],"split_indices":[0],"split_type":[0],"sum_hessian":[1E1],"tree_param":{"num_deleted":"0","num_feature":"5","num_nodes":"1","size_leaf_vector":"1"}},{"base_weights":[-8.877841E-5],"categories":[],"categories_nodes":[],"categories_segments":[],"categories_sizes":[],"default_left":[0],"id":97,"left_children":[-1],"loss_changes":[0E0],"parents":[2147483647],"right_children":[-1],"split_conditions":[-2.6633525E-5],"split_indices":[0],"split_type":[0],"sum_hessian":[1E1],"tree_param":{"num_deleted":"0","num_feature":"5","num_nodes":"1","size_leaf_vector":"1"}},{"base_weights":[-8.877841E-5],"categories":[],"categories_nodes":[],"categories_segments":[],"categories_sizes":[],"default_left":[0],"id":98,"left_children":[-1],"loss_changes":[0E0],"parents":[2147483647],"right_children":[-1],"split_conditions":[-2.6633525E-5],"split_indices":[0],"split_type":[0],"sum_hessian":[1E1],"tree_param":{"num_deleted":"0","num_feature":"5","num_nodes":"1","size_leaf_vector":"1"}},{"base_weights":[-8.877841E-5],"categories":[],"categories_nodes":[],"categories_segments":[],"categories_sizes":[],"default_left":[0],"id":99,"left_children":[-1],"loss_changes":[0E0],"parents":[2147483647],"right_children":[-1],"split_conditions":[-2.6633525E-5],"split_indices":[0],"split_type":[0],"sum_hessian":[1E1],"tree_param":{"num_deleted":"0","num_feature":"5","num_nodes":"1","size_leaf_vector":"1"}}]},"name":"gbtree"},"learner_model_param":{"base_score":"[8.6622E2]","boost_from_average":"1","num_class":"0","num_feature":"5","num_target":"1"},"objective":{"name":"reg:squarederror","reg_loss_param":{"scale_pos_weight":"1"}}},"version":[3,2,0]}